
\data\
ngram 1=13082
ngram 2=80941

\1-grams:
-1.302491	</s>
-99	<s>	-1.742941
-3.323210	!NOISE	-0.502897
-4.756983	!SIL	-5.663467
-4.756983	'EM	-0.712010
-1.984689	A	-1.019849
-3.205260	A.	-0.834694
-4.259270	A.'S	-0.089614
-4.756983	A.S	-0.013935
-4.756983	AA	-0.712010
-4.518024	ABANDON	-0.186133
-4.518024	ABANDONED	-0.761869
-4.619262	ABANDONING	-1.809471
-4.756983	ABANTO	-0.013935
-4.756983	ABATEMENTS	-0.712010
-4.619262	ABBOUD	-0.013935
-4.756983	ABBREVIATED	-0.013935
-4.756983	ABDUCTED	-0.712010
-4.756983	ABDUCTION	-0.712010
-4.756983	ABERRATION	-0.013935
-4.756983	ABILITIES	-0.712010
-3.932483	ABILITY	-0.851280
-4.035690	ABLE	-2.545425
-4.756983	ABOARD	-0.013935
-4.756983	ABOLISH	-0.013935
-4.619262	ABORTED	-2.059349
-4.619262	ABORTION	-0.148553
-4.619262	ABOUND	-0.396504
-4.756983	ABOUNDS	-0.013935
-2.595451	ABOUT	-1.050201
-3.666236	ABOVE	-0.841448
-4.756983	ABRAHAM	-0.013935
-4.619262	ABRAMS	-0.013935
-4.369654	ABRASIVE	-0.383256
-3.888823	ABROAD	-0.693143
-4.756983	ABRUPTLY	-0.712010
-4.756983	ABSCAM	-0.013935
-4.756983	ABSENCE	-2.197652
-4.756983	ABSENT	-0.712010
-4.619262	ABSENTEEISM	-1.423715
-4.756983	ABSHIRE	-0.013935
-4.619262	ABSOLUTE	-1.855229
-4.518024	ABSOLUTELY	-0.502535
-4.756983	ABSTAINED	-0.013935
-4.756983	ABSTINENT	-1.758319
-4.756983	ABSURD	-0.712010
-4.619262	ABUSE	-1.758319
-4.756983	ABUSES	-0.712010
-4.756983	ABUSING	-1.758319
-4.756983	AC	-0.712010
-4.369654	ACADEMIC	-0.712010
-4.518024	ACADEMICS	-0.771381
-4.518024	ACADEMY	-0.682688
-4.756983	ACADEMY'S	-1.758319
-4.518024	ACCELERATE	-0.757824
-4.756983	ACCELERATED	-0.013935
-4.756983	ACCELERATES	-1.855229
-4.619262	ACCELERATING	-0.475685
-3.981028	ACCEPT	-0.802358
-4.619262	ACCEPTABLE	-2.059349
-4.756983	ACCEPTANCE	-0.013935
-4.259270	ACCEPTED	-0.861183
-4.619262	ACCEPTING	-0.475685
-4.619262	ACCEPTS	-1.758319
-4.098237	ACCESS	-1.062899
-4.369654	ACCIDENT	-1.318980
-4.756983	ACCIDENTALLY	-0.013935
-4.619262	ACCIDENTS	-0.148553
-4.518024	ACCOMMODATE	-0.502535
-4.756983	ACCOMMODATED	-0.013935
-4.518024	ACCOMMODATION	-2.888247
-4.756983	ACCOMPANIED	-1.758319
-4.756983	ACCOMPANYING	-0.712010
-4.756983	ACCOMPLI	-0.013935
-4.756983	ACCOMPLISH	-0.013935
-4.756983	ACCOMPLISHED	-0.712010
-4.098237	ACCORD	-0.431222
-4.619262	ACCORDED	-1.758319
-3.519792	ACCORDING	-3.151894
-3.556845	ACCOUNT	-0.874304
-4.756983	ACCOUNTABLE	-0.013935
-4.756983	ACCOUNTANTS	-0.013935
-4.098237	ACCOUNTED	-2.360379
-3.981028	ACCOUNTING	-0.613347
-3.719085	ACCOUNTS	-0.485622
-4.756983	ACCRETION	-1.934410
-4.518024	ACCRUED	-0.396504
-4.756983	ACCUMULATED	-0.013935
-4.756983	ACCUMULATING	-0.013935
-4.756983	ACCUMULATION	-1.934410
-4.619262	ACCURACY	-0.542632
-4.619262	ACCURATE	-1.277587
-4.756983	ACCURES	-0.712010
-4.756983	ACCUSATION	-0.013935
-4.756983	ACCUSATIONS	-0.013935
-4.259270	ACCUSED	-0.654747
-4.518024	ACCUSTOMED	-2.001357
-4.756983	ACE	-0.013935
-4.619262	ACHIEVE	-0.330440
-4.518024	ACHIEVED	-0.489979
-4.756983	ACHIEVEMENTS	-0.013935
-4.171332	ACID	-1.476712
-4.756983	ACKNOWLEDGE	-0.013935
-3.981028	ACKNOWLEDGED	-0.923605
-4.369654	ACKNOWLEDGES	-0.358364
-4.619262	ACQUIRE	-0.172603
-3.556845	ACQUIRED	-0.633213
-4.619262	ACQUIRERS	-0.475685
-4.619262	ACQUIRES	-0.013935
-4.259270	ACQUIRING	-0.210244
-3.748135	ACQUISITION	-0.734329
-3.888823	ACQUISITIONS	-0.918123
-4.756983	ACQUITTAL	-0.013935
-4.518024	ACRE	-0.307212
-4.756983	ACREAGE	-1.758319
-4.518024	ACRES	-0.475685
-4.756983	ACRONYM	-0.712010
-3.779268	ACROSS	-0.916005
-3.666236	ACT	-0.749401
-4.259270	ACTING	-0.371604
-3.748135	ACTION	-0.698954
-4.171332	ACTIONS	-0.502535
-4.756983	ACTIVATE	-0.013935
-3.932483	ACTIVE	-1.029337
-4.259270	ACTIVELY	-0.734675
-4.259270	ACTIVIST	-0.489936
-4.369654	ACTIVISTS	-1.184280
-4.171332	ACTIVITIES	-0.462438
-3.849154	ACTIVITY	-0.955634
-4.756983	ACTORS	-0.013935
-4.756983	ACTRESS	-0.013935
-4.259270	ACTS	-0.611048
-4.171332	ACTUAL	-0.729787
-3.779268	ACTUALLY	-0.581924
-4.756983	ACUMEN	-0.013935
-3.932483	AD	-0.682688
-4.756983	ADAMS	-1.758319
-4.756983	ADAPT	-0.013935
-3.779268	ADD	-1.979791
-3.576629	ADDED	-0.827410
-4.756983	ADDICT	-0.013935
-4.756983	ADDICTIVE	-1.758319
-3.932483	ADDING	-0.633145
-4.098237	ADDITION	-0.604171
-3.666236	ADDITIONAL	-0.511100
-4.756983	ADDITIONALLY	-0.013935
-4.756983	ADDITIONS	-0.013935
-4.756983	ADDRESS	-1.934410
-4.756983	ADDRESSED	-0.013935
-4.756983	ADDRESSING	-0.013935
-3.849154	ADDS	-0.867934
-4.756983	ADEPT	-0.013935
-4.098237	ADEQUATE	-0.341177
-4.369654	ADEQUATELY	-0.475685
-4.756983	ADHERENTS	-0.712010
-4.756983	ADJECTIVE	-0.013935
-4.756983	ADJUDICATE	-0.013935
-4.518024	ADJUST	-0.013935
-4.171332	ADJUSTED	-1.869469
-4.518024	ADJUSTMENT	-1.809471
-4.756983	ADJUSTMENTS	-1.758319
-4.756983	ADLER	-0.712010
-4.756983	ADMINISTER	-1.277587
-3.642042	ADMINISTRATION	-0.584330
-4.619262	ADMINISTRATION'S	-0.507662
-4.756983	ADMINISTRATIONS	-0.013935
-4.619262	ADMINISTRATIVE	-0.148553
-4.619262	ADMINISTRATORS	-0.013935
-4.756983	ADMIRABLE	-0.013935
-4.259270	ADMIRAL	-0.662125
-4.619262	ADMIRATION	-0.148553
-4.756983	ADMIRES	-0.712010
-4.756983	ADMIRING	-0.013935
-4.756983	ADMISSION	-1.758319
-4.369654	ADMIT	-0.542632
-4.756983	ADMITS	-0.013935
-4.619262	ADMITTED	-0.148553
-4.619262	ADOLESCENT	-0.013935
-4.619262	ADOPT	-1.758319
-4.369654	ADOPTED	-1.624682
-4.756983	ADOPTING	-0.013935
-4.619262	ADOPTION	-0.013935
-4.756983	ADORNED	-0.013935
-4.756983	ADROITLY	-0.712010
-3.932483	ADS	-0.879571
-4.756983	ADULT	-0.736619
-4.756983	ADULTERER	-1.758319
-4.518024	ADULTS	-0.502535
-4.098237	ADVANCE	-0.546739
-4.035690	ADVANCED	-0.604848
-4.756983	ADVANCERS	-1.934410
-4.619262	ADVANCES	-1.934410
-4.171332	ADVANCING	-1.975803
-3.849154	ADVANTAGE	-0.853881
-4.518024	ADVANTAGES	-0.307212
-4.619262	ADVENTURE	-1.809471
-4.756983	ADVERSE	-0.013935
-4.756983	ADVERSELY	-0.013935
-4.518024	ADVERTISE	-0.396504
-4.619262	ADVERTISED	-1.633380
-4.518024	ADVERTISEMENTS	-1.720530
-4.619262	ADVERTISER	-1.934410
-4.518024	ADVERTISERS	-0.600624
-3.812806	ADVERTISING	-0.950412
-4.171332	ADVICE	-0.383256
-4.518024	ADVISE	-0.089614
-4.619262	ADVISED	-0.013935
-4.035690	ADVISER	-0.472745
-3.888823	ADVISERS	-0.602144
-4.756983	ADVISES	-0.712010
-4.756983	ADVISORS	-0.013935
-4.518024	ADVISORY	-0.396504
-4.619262	ADVOCATE	-1.277587
-4.756983	ADVOCATED	-1.758319
-4.619262	ADVOCATES	-0.712010
-4.756983	AEROJET	-0.013935
-4.756983	AEROSPACE	-0.013935
-4.619262	AETNA	-1.758319
-4.756983	AF	-0.712010
-4.098237	AFFAIR	-1.099696
-4.098237	AFFAIRS	-0.497206
-4.035690	AFFECT	-0.013935
-4.035690	AFFECTED	-0.224318
-4.756983	AFFECTS	-1.934410
-4.518024	AFFIDAVIT	-0.013935
-4.756983	AFFILIATE	-0.013935
-4.518024	AFFILIATED	-0.502535
-4.756983	AFFILIATES	-0.013935
-4.756983	AFFINITY	-1.934410
-4.756983	AFFIRMATIVE	-0.013935
-4.756983	AFFIRMED	-1.758319
-4.756983	AFFLICTED	-1.934410
-4.518024	AFFLUENT	-0.307212
-4.619262	AFFORD	-1.277587
-4.756983	AFFRONT	-1.758319
-4.518024	AFGHAN	-0.611680
-4.518024	AFGHANISTAN	-0.761869
-4.756983	AFIRE	-0.712010
-4.619262	AFLATOXIN	-0.013935
-4.518024	AFRAID	-0.475685
-4.518024	AFRICA	-0.999242
-4.756983	AFRICA'S	-1.758319
-4.518024	AFRICAN	-0.572969
-4.756983	AFRICANS	-0.712010
-4.756983	AFRIKAANS	-1.758319
-2.889237	AFTER	-0.736552
-4.259270	AFTERNOON	-0.951636
-4.756983	AFTERSHOCKS	-2.059349
-4.619262	AFTERWARD	-0.148553
-3.370910	AGAIN	-0.587200
-3.036272	AGAINST	-0.618589
-4.756983	AGASSI	-0.013935
-3.932483	AGE	-1.046286
-4.619262	AGED	-1.277587
-4.756983	AGEE	-0.013935
-4.035690	AGENCIES	-0.958367
-3.748135	AGENCY	-0.564147
-4.518024	AGENCY'S	-0.262994
-4.369654	AGENDA	-0.253079
-4.098237	AGENT	-1.250889
-3.932483	AGENTS	-0.893644
-4.756983	AGER	-0.013935
-4.756983	AGES	-1.758319
-4.756983	AGGRAVATES	-0.712010
-4.756983	AGGREGATE	-2.059349
-4.259270	AGGRESSIVE	-0.344312
-4.619262	AGGRESSIVELY	-0.307212
-4.619262	AGING	-1.896622
-4.756983	AGITATION	-0.013935
-4.756983	AGNEW	-0.712010
-4.035690	AGO	-0.809218
-4.756983	AGONIES	-0.712010
-3.849154	AGREE	-1.232036
-3.519792	AGREED	-1.134906
-4.756983	AGREEING	-1.934410
-3.454002	AGREEMENT	-0.733045
-4.756983	AGREEMENT'S	-0.013935
-3.981028	AGREEMENTS	-0.568359
-4.035690	AGREES	-0.593137
-4.259270	AGRICULTURAL	-0.257890
-4.171332	AGRICULTURE	-0.339420
-4.518024	AH	-0.600624
-3.719085	AHEAD	-0.803842
-3.981028	AID	-0.325137
-4.171332	AIDE	-0.552084
-4.619262	AIDED	-0.682688
-4.259270	AIDES	-0.307212
-3.748135	AIDS	-0.964681
-4.756983	AILES	-0.013935
-4.756983	AILMENTS	-1.934410
-4.756983	AILS	-0.013935
-4.756983	AIM	-1.934410
-4.259270	AIMED	-0.843662
-4.756983	AIMING	-1.934410
-4.756983	AIMS	-0.013935
-3.485652	AIR	-0.437204
-3.888823	AIRCRAFT	-0.854741
-4.756983	AIRED	-0.013935
-4.756983	AIRLIFT	-1.758319
-4.035690	AIRLINE	-0.485680
-4.756983	AIRLINE'S	-1.758319
-4.619262	AIRLINER	-0.013935
-3.666236	AIRLINES	-0.579298
-4.756983	AIRPLANES	-0.013935
-3.981028	AIRPORT	-0.886006
-4.259270	AIRPORTS	-1.079545
-4.619262	AIRSPACE	-0.013935
-4.619262	AIRTIME	-1.934410
-4.756983	AIRWAYS	-1.934410
-4.756983	AKERS'S	-0.013935
-4.756983	AKIN	-1.758319
-4.619262	AL	-0.013935
-4.619262	ALABAMA	-0.148553
-4.756983	ALAMOS	-0.013935
-4.369654	ALAN	-0.722201
-4.619262	ALARMED	-0.697534
-4.619262	ALASKA	-1.423715
-4.619262	ALASKAN	-0.712010
-4.259270	ALBEIT	-0.445514
-4.619262	ALBERT	-0.013935
-4.619262	ALBUQUERQUE	-1.934410
-4.756983	ALCOA	-0.013935
-4.756983	ALCOHOL	-0.712010
-4.756983	ALCOHOLICS	-1.758319
-4.171332	ALEX	-2.110501
-4.518024	ALEXANDER	-0.013935
-4.756983	ALFONSIN	-0.013935
-4.619262	ALFRED	-0.475685
-4.756983	ALGEBRAIC	-0.013935
-4.756983	ALGERIA	-0.013935
-4.756983	ALI	-0.013935
-4.619262	ALIEN	-2.517987
-4.756983	ALIEN'S	-0.712010
-4.756983	ALIENATING	-0.013935
-4.619262	ALIENS	-0.843662
-4.098237	ALIKE	-1.287702
-2.881000	ALL	-0.923208
-4.259270	ALLEGATIONS	-0.542632
-4.518024	ALLEGE	-2.001357
-4.259270	ALLEGED	-0.580025
-4.619262	ALLEGEDLY	-0.475685
-4.756983	ALLEGING	-0.013935
-4.369654	ALLEGIS	-0.054342
-4.756983	ALLEGIS'	-0.013935
-4.369654	ALLEN	-0.148553
-4.756983	ALLENDE	-0.013935
-4.756983	ALLEYS	-1.758319
-4.518024	ALLIANCE	-0.089614
-4.171332	ALLIED	-0.321444
-4.619262	ALLIED'S	-0.828816
-4.369654	ALLIES	-0.518065
-4.756983	ALLIS	-0.013935
-4.756983	ALLOCATION	-0.013935
-4.756983	ALLOCATORS	-0.013935
-4.756983	ALLOTMENTS	-0.712010
-4.756983	ALLOTS	-1.758319
-4.756983	ALLOTTED	-0.712010
-3.748135	ALLOW	-0.981498
-4.756983	ALLOWANCE	-2.536470
-4.756983	ALLOWANCES	-0.013935
-3.849154	ALLOWED	-0.702286
-3.981028	ALLOWING	-0.586843
-4.098237	ALLOWS	-0.414753
-4.619262	ALLSTATE	-1.758319
-4.756983	ALLY	-1.758319
-3.469539	ALMOST	-0.670584
-3.888823	ALONE	-0.548498
-3.619126	ALONG	-1.053755
-3.301191	ALREADY	-0.422115
-2.742463	ALSO	-0.689135
-4.756983	ALSOP	-0.013935
-4.756983	ALTER	-0.712010
-4.619262	ALTERED	-0.148553
-4.098237	ALTERNATIVE	-0.741938
-4.518024	ALTERNATIVES	-0.089614
-3.812806	ALTHOUGH	-0.483225
-4.756983	ALTO	-1.758319
-4.756983	ALTON	-1.934410
-4.098237	ALUMINUM	-0.420044
-4.619262	ALUMNI	-1.934410
-4.756983	ALVIN	-1.934410
-4.756983	ALWAY	-0.013935
-3.719085	ALWAYS	-0.825002
-4.518024	AM	-0.605632
-4.756983	AM'S	-0.013935
-4.756983	AMASS	-1.758319
-4.756983	AMAX	-0.712010
-4.756983	AMAZES	-0.712010
-4.756983	AMBASSADOR	-1.758319
-4.756983	AMBASSADORIAL	-1.758319
-4.756983	AMBASSADORS	-1.758319
-4.756983	AMBIGUITIES	-1.758319
-4.756983	AMBIGUOUS	-0.013935
-4.756983	AMBITION	-0.013935
-4.619262	AMBITIONS	-0.396504
-4.259270	AMBITIOUS	-0.330440
-4.756983	AMBULA	-0.712010
-4.518024	AMBULANCE	-2.741720
-4.756983	AME	-0.712010
-4.756983	AMELIORATE	-0.013935
-4.756983	AMEND	-0.013935
-4.756983	AMENDABLE	-0.013935
-4.619262	AMENDED	-1.809471
-4.259270	AMENDMENT	-0.330440
-4.518024	AMENDMENTS	-0.523822
-4.619262	AMERADA	-2.059349
-4.756983	AMERI	-0.712010
-3.888823	AMERICA	-0.526360
-4.259270	AMERICA'S	-0.110789
-3.439002	AMERICAN	-0.575515
-3.932483	AMERICANS	-0.619935
-4.619262	AMERITRUST	-0.712010
-4.619262	AMES	-0.475685
-4.619262	AMEX	-0.828816
-4.619262	AMFAC	-0.013935
-4.756983	AMICUS	-0.013935
-3.812806	AMID	-0.551623
-4.756983	AMMAN	-0.013935
-4.756983	AMMUNITION	-0.712010
-4.756983	AMNESTIES	-0.013935
-4.756983	AMNESTY	-0.013935
-4.619262	AMOCO	-1.758319
-4.756983	AMOCO'S	-1.758319
-3.213954	AMONG	-0.707674
-4.756983	AMONGST	-0.013935
-4.756983	AMORAL	-1.934410
-4.619262	AMORTIZATION	-1.758319
-3.932483	AMOUNT	-1.153812
-4.756983	AMOUNTED	-0.712010
-4.619262	AMOUNTING	-1.758319
-4.171332	AMOUNTS	-1.422948
-4.518024	AMPLE	-1.855229
-4.619262	AMSTERDAM	-0.089614
-4.756983	AMUSE	-0.013935
-4.756983	AMUSED	-0.013935
-4.756983	AMWAY	-0.712010
-2.574811	AN	-0.901393
-4.756983	ANAHEIM	-1.633380
-4.171332	ANALYSIS	-0.560527
-3.691857	ANALYST	-0.647950
-4.756983	ANALYST'S	-0.013935
-3.370910	ANALYSTS	-0.832666
-4.518024	ANALYSTS'	-0.502535
-4.756983	ANALYTICALLY	-0.013935
-1.737773	AND	-0.856646
-4.756983	ANDO	-1.758319
-4.756983	ANDREW	-0.712010
-4.756983	ANDREW'S	-0.013935
-4.756983	ANEW	-1.758319
-4.756983	ANGELA	-1.855229
-4.369654	ANGELES	-1.044479
-4.518024	ANGELL	-0.013935
-4.756983	ANGER	-1.934410
-4.756983	ANGLE	-2.059349
-4.756983	ANGLICAN	-1.758319
-4.756983	ANGLO	-0.013935
-4.756983	ANGOLA	-1.758319
-4.619262	ANGRY	-1.242272
-4.756983	ANI	-0.712010
-4.756983	ANIM	-0.712010
-4.171332	ANIMAL	-1.576817
-4.035690	ANIMALS	-2.107665
-4.756983	ANKLE	-1.758319
-4.518024	ANN	-0.475685
-4.756983	ANNA	-0.013935
-4.756983	ANNE	-1.934410
-4.756983	ANNIHILATED	-0.013935
-4.756983	ANNIVERSARY	-0.013935
-4.619262	ANNOUNCE	-1.570324
-3.619126	ANNOUNCED	-0.486939
-3.748135	ANNOUNCEMENT	-0.594327
-4.619262	ANNOUNCEMENTS	-1.277587
-4.756983	ANNOUNCER	-0.475685
-4.619262	ANNOUNCES	-0.600624
-4.619262	ANNOUNCING	-1.633380
-4.756983	ANNOYED	-0.013935
-4.619262	ANNOYING	-0.013935
-3.642042	ANNUAL	-0.837437
-4.756983	ANNUALIZED	-0.013935
-4.171332	ANNUALLY	-1.508036
-4.756983	ANONYMITY	-0.013935
-4.619262	ANONYMOUS	-1.758319
-3.213954	ANOTHER	-0.614389
-4.035690	ANSWER	-1.069235
-4.619262	ANSWERED	-0.475685
-4.098237	ANSWERS	-1.869014
-4.756983	ANTACID	-1.758319
-4.619262	ANTAR	-0.013935
-4.619262	ANTARCTIC	-0.013935
-4.619262	ANTHEM	-1.758319
-4.756983	ANTHONY	-1.277587
-3.812806	ANTI	-0.776818
-4.756983	ANTIAIRCRAFT	-1.758319
-4.756983	ANTIBODY	-1.633380
-4.518024	ANTICIPATE	-0.307212
-4.756983	ANTICIPATED	-0.013935
-4.518024	ANTICIPATION	-1.578617
-4.756983	ANTIPATHY	-0.013935
-4.756983	ANTIQUE	-1.758319
-4.756983	ANTITAKEOVER	-0.013935
-3.981028	ANTITRUST	-0.516461
-4.756983	ANTONIO	-0.712010
-4.756983	ANTONIU	-0.013935
-4.756983	ANTONIU'S	-0.013935
-4.756983	ANXIETY	-0.013935
-2.971376	ANY	-0.509895
-4.518024	ANYBODY	-0.465830
-4.518024	ANYMORE	-0.651776
-4.259270	ANYONE	-0.442529
-3.576629	ANYTHING	-0.657661
-4.756983	ANYTIME	-0.712010
-4.619262	ANYWAY	-1.758319
-4.369654	ANYWHERE	-1.518105
-4.369654	APART	-1.896622
-4.619262	APARTHEID	-0.475685
-4.619262	APARTMENT	-1.277587
-4.756983	APARTMENTS	-0.712010
-4.619262	APIECE	-0.475685
-4.619262	APOLLO	-0.013935
-4.756983	APOLOGIES	-1.758319
-4.756983	APOLOGY	-1.633380
-4.756983	APPARATCHIKS	-0.013935
-4.369654	APPAREL	-0.148553
-4.171332	APPARENT	-0.431222
-3.888823	APPARENTLY	-0.251006
-3.981028	APPEAL	-0.633145
-4.518024	APPEALED	-0.502535
-4.756983	APPEALING	-0.712010
-4.171332	APPEALS	-1.197273
-3.981028	APPEAR	-0.646771
-4.756983	APPEARANCE	-0.712010
-3.932483	APPEARED	-1.343617
-3.812806	APPEARS	-0.611183
-4.756983	APPELLATE	-2.059349
-4.756983	APPETITE	-0.712010
-4.756983	APPLAUDS	-0.013935
-4.171332	APPLE	-1.063978
-4.756983	APPLE'S	-0.013935
-4.518024	APPLES	-2.270202
-4.756983	APPLETON	-0.013935
-4.756983	APPLIAN	-0.013935
-4.756983	APPLIANCE	-0.013935
-4.518024	APPLIANCES	-2.633380
-4.619262	APPLICABLE	-0.013935
-4.369654	APPLICATION	-0.510447
-4.171332	APPLICATIONS	-0.874886
-4.171332	APPLIED	-1.555894
-4.619262	APPLIES	-0.148553
-4.518024	APPLY	-2.059349
-4.756983	APPLYING	-0.712010
-4.098237	APPOINTED	-0.295678
-4.619262	APPOINTMENT	-0.013935
-4.756983	APPRAISERS	-1.934410
-4.756983	APPRECIATE	-0.013935
-4.619262	APPRECIATED	-0.148553
-4.518024	APPRECIATION	-0.148553
-4.756983	APPREHENSIVE	-1.934410
-4.756983	APPRENTICESHIP	-0.712010
-3.812806	APPROACH	-0.556712
-4.619262	APPROACHED	-0.148553
-4.756983	APPROACHING	-0.013935
-4.756983	APPROBATION	-0.013935
-4.259270	APPROPRIATE	-0.424532
-4.619262	APPROPRIATIONS	-0.600624
-3.719085	APPROVAL	-0.769124
-4.619262	APPROVALS	-0.712010
-4.619262	APPROVE	-0.502535
-3.556845	APPROVED	-1.003461
-4.619262	APPROVES	-0.013935
-4.518024	APPROXIMATELY	-0.235635
-4.756983	APPROXIMATES	-1.934410
-4.756983	APRICOT	-1.758319
-3.666236	APRIL	-0.826418
-4.756983	AQUATIC	-0.013935
-4.756983	AQUINO	-0.709725
-4.756983	AR	-0.013935
-4.369654	ARAB	-0.309781
-4.756983	ARABIA	-0.013935
-4.518024	ARABS	-0.307212
-4.756983	ARBITER	-0.013935
-4.259270	ARBITRAGE	-0.196159
-4.518024	ARBITRAGERS	-0.309781
-4.756983	ARBITRARILY	-0.013935
-4.369654	ARBITRATION	-0.761869
-4.756983	ARBITRATORS	-0.013935
-4.756983	ARBOR	-0.013935
-4.756983	ARBS	-0.013935
-4.756983	ARC	-0.013935
-4.756983	ARCANE	-1.758319
-4.756983	ARCHIE	-1.934410
-4.756983	ARCHITECT	-0.013935
-4.756983	ARCHITECTURAL	-0.013935
-4.619262	ARCHITECTURE	-0.148553
-4.756983	ARCHIVES	-0.712010
-4.756983	ARDOR	-0.013935
-2.317711	ARE	-0.973304
-3.981028	AREA	-0.499958
-3.812806	AREAS	-0.784564
-3.312061	AREN'T	-0.514285
-4.756983	ARENA	-0.712010
-4.756983	ARENAS	-0.712010
-4.756983	ARGENTINA	-0.148553
-4.756983	ARGENTINE	-0.712010
-4.756983	ARGH	-0.712010
-4.619262	ARGO	-0.013935
-4.619262	ARGO'S	-0.013935
-4.619262	ARGON	-0.013935
-4.756983	ARGOT	-0.712010
-4.756983	ARGUABLE	-0.013935
-4.756983	ARGUABLY	-0.712010
-3.849154	ARGUE	-0.936191
-4.259270	ARGUED	-1.657798
-4.035690	ARGUES	-0.580113
-4.518024	ARGUING	-0.396504
-4.098237	ARGUMENT	-0.303538
-4.369654	ARGUMENTS	-0.054342
-4.756983	ARIANE	-0.013935
-4.756983	ARIAS	-0.712010
-4.756983	ARISES	-0.013935
-4.098237	ARIZONA	-0.441985
-4.619262	ARKANSAS	-0.148553
-4.756983	ARLINGTON	-0.712010
-4.098237	ARM	-1.517759
-4.098237	ARMED	-0.731440
-4.756983	ARMENIA	-1.758319
-4.619262	ARMENIAN	-1.758319
-4.756983	ARMIES	-0.013935
-4.619262	ARMORED	-0.013935
-3.812806	ARMS	-1.107213
-4.756983	ARMSTRONG	-0.013935
-4.259270	ARMY	-0.503502
-4.756983	ARMY'S	-0.013935
-4.619262	ARNOLD	-0.148553
-4.756983	ARNOLD'S	-0.013935
-3.396880	AROUND	-0.725012
-4.619262	AROUSED	-1.758319
-4.756983	ARRAIGNMENT	-0.013935
-4.369654	ARRANGE	-0.682875
-4.518024	ARRANGED	-0.013935
-4.171332	ARRANGEMENT	-0.504230
-4.369654	ARRANGEMENTS	-0.814460
-4.756983	ARRANGES	-1.758319
-4.756983	ARRANGING	-0.013935
-4.619262	ARRAY	-2.059349
-4.756983	ARREARS	-1.758319
-4.518024	ARREST	-0.307212
-4.619262	ARRESTED	-1.277587
-4.619262	ARRESTS	-0.475685
-4.756983	ARRIVAL	-0.013935
-4.518024	ARRIVED	-0.682688
-4.518024	ARRIVING	-2.216957
-4.756983	ARROGANT	-0.013935
-4.756983	ARROYO	-0.013935
-3.888823	ART	-1.249050
-4.756983	ARTERY	-0.475685
-4.259270	ARTHUR	-0.186133
-4.756983	ARTICLE	-0.013935
-4.756983	ARTICLES	-0.013935
-4.756983	ARTIFICIAL	-0.013935
-4.756983	ARTILLERY	-0.013935
-4.756983	ARTIST	-0.013935
-4.756983	ARTISTIC	-0.013935
-4.259270	ARTISTS	-0.330440
-4.518024	ARTS	-0.249220
-2.303451	AS	-0.952694
-4.756983	ASBESTOS	-0.013935
-4.756983	ASEAN	-1.633380
-4.756983	ASH	-0.013935
-4.756983	ASHAMED	-1.758319
-4.518024	ASHLAND	-0.600624
-4.756983	ASHTON	-0.013935
-4.756983	ASIA	-1.758319
-4.619262	ASIA'S	-0.475685
-4.518024	ASIAN	-1.825266
-4.756983	ASIANS	-1.758319
-4.619262	ASIDE	-0.148553
-4.035690	ASK	-1.256915
-4.756983	ASKANCE	-0.013935
-3.469539	ASKED	-0.721460
-4.259270	ASKING	-0.230600
-4.369654	ASKS	-0.148553
-4.619262	ASPECT	-0.013935
-4.259270	ASPECTS	-2.360379
-4.756983	ASPHALT	-0.013935
-4.756983	ASPIN	-0.712010
-4.756983	ASPIRANTS	-1.855229
-4.619262	ASSAULT	-1.855229
-4.619262	ASSAULTS	-0.475685
-4.619262	ASSEMBLE	-0.148553
-4.518024	ASSEMBLED	-0.307212
-4.518024	ASSEMBLY	-1.825266
-4.518024	ASSERTED	-0.600624
-4.518024	ASSERTION	-0.235635
-4.619262	ASSERTS	-0.307212
-4.756983	ASSESS	-0.712010
-4.756983	ASSESSING	-0.712010
-4.756983	ASSESSMENT	-0.712010
-3.748135	ASSET	-0.746752
-3.270124	ASSETS	-0.865422
-4.518024	ASSIGNED	-0.089614
-4.756983	ASSIMILATING	-0.013935
-4.518024	ASSISTANCE	-2.222070
-4.098237	ASSISTANT	-0.624121
-4.756983	ASSISTING	-1.758319
-4.369654	ASSOCIATE	-0.376728
-3.981028	ASSOCIATED	-1.985563
-4.171332	ASSOCIATES	-0.363348
-3.748135	ASSOCIATION	-0.589518
-4.171332	ASSUME	-1.174276
-4.518024	ASSUMED	-0.396504
-4.756983	ASSUMES	-0.712010
-4.518024	ASSUMING	-0.502535
-4.756983	ASSUMPTION	-0.013935
-4.619262	ASSURANCE	-0.148553
-4.756983	ASSURANCES	-0.712010
-4.756983	ASSURE	-0.712010
-4.619262	ASSURED	-1.855229
-4.756983	ASTAIRE	-1.758319
-4.756983	ASTROLOGER	-0.013935
-4.756983	ASTROLOGY	-0.013935
-2.337094	AT	-1.122060
-4.756983	ATALANTA	-0.013935
-4.756983	ATCOR	-0.712010
-4.369654	ATE	-1.871354
-4.756983	ATHENS	-0.712010
-4.756983	ATHEROSCLEROSIS	-0.013935
-4.518024	ATHLETE	-2.302387
-4.518024	ATHLETIC	-0.475685
-4.756983	ATKINS'S	-1.934410
-4.098237	ATLANTA	-0.599298
-4.756983	ATLANTA'S	-0.013935
-4.098237	ATLANTIC	-1.909587
-4.756983	ATLAS	-0.013935
-4.369654	ATMOSPHERE	-1.992615
-4.756983	ATOMIC	-1.758319
-4.756983	ATT	-0.013935
-4.756983	ATTACH	-0.013935
-4.098237	ATTACK	-1.028674
-4.259270	ATTACKED	-0.955777
-4.259270	ATTACKS	-0.644290
-4.756983	ATTAINABLE	-0.013935
-4.035690	ATTEMPT	-1.052376
-4.619262	ATTEMPTED	-1.758319
-4.369654	ATTEMPTS	-0.724080
-4.619262	ATTEND	-0.307212
-4.619262	ATTENDANCE	-0.475685
-4.756983	ATTENDANTS	-0.475685
-4.369654	ATTENDED	-1.430955
-4.756983	ATTENDS	-0.712010
-3.932483	ATTENTION	-0.510447
-4.756983	ATTEST	-0.013935
-4.098237	ATTITUDE	-0.573264
-4.369654	ATTITUDES	-0.337499
-4.098237	ATTORNEY	-0.813021
-4.756983	ATTORNEY'S	-0.013935
-4.171332	ATTORNEYS	-0.206381
-4.756983	ATTRACT	-0.054342
-4.259270	ATTRACTED	-0.461904
-4.756983	ATTRACTING	-0.712010
-4.619262	ATTRACTIVE	-0.307212
-4.756983	ATTRACTIVENESS	-0.013935
-4.756983	ATTRIBUTE	-0.013935
-4.259270	ATTRIBUTED	-0.828816
-4.756983	ATTRIBUTES	-0.013935
-4.756983	ATTRITION	-0.712010
-4.756983	AU	-0.712010
-3.932483	AUCTION	-0.995374
-4.756983	AUCTIONING	-0.013935
-4.518024	AUCTIONS	-0.828816
-4.619262	AUD	-0.148553
-4.518024	AUDI	-1.855229
-4.756983	AUDI'S	-1.855229
-4.035690	AUDIENCE	-0.330440
-4.756983	AUDIENCES	-1.758319
-4.756983	AUDIO	-0.712010
-4.619262	AUDIT	-0.148553
-4.259270	AUDITION	-2.536470
-4.756983	AUDITORS	-0.712010
-4.619262	AUDITS	-2.498682
-3.691857	AUGUST	-0.586976
-4.756983	AUGUSTE	-1.934410
-4.369654	AUSTERITY	-0.230600
-4.619262	AUSTIN	-1.758319
-4.518024	AUSTRALIA	-0.013935
-4.619262	AUSTRALIAN	-0.396504
-4.756983	AUSTRALIANS	-0.013935
-4.756983	AUTHENTICITY	-0.712010
-4.756983	AUTHOR	-1.758319
-4.756983	AUTHORISED	-1.758319
-4.756983	AUTHORITARIAN	-0.013935
-4.035690	AUTHORITIES	-0.321444
-4.756983	AUTHORITIES'	-0.712010
-3.849154	AUTHORITY	-0.354721
-4.619262	AUTHORIZATION	-1.934410
-4.756983	AUTHORIZE	-0.013935
-4.259270	AUTHORIZED	-0.685273
-4.518024	AUTHORS	-0.089614
-3.642042	AUTO	-0.776109
-4.756983	AUTOBIOGRAPHY	-0.013935
-4.756983	AUTODIE	-1.758319
-4.756983	AUTOGRAPHS	-0.013935
-4.369654	AUTOMATED	-0.297725
-4.619262	AUTOMATIC	-0.148553
-4.369654	AUTOMATICALLY	-0.489936
-4.756983	AUTOMOBILE	-0.712010
-4.619262	AUTOMOTIVE	-0.475685
-4.756983	AUTOMOTIVE'S	-1.758319
-4.619262	AUTONOMY	-0.475685
-4.619262	AUTOS	-1.758319
-4.369654	AUTUMN	-0.976287
-4.756983	AVAIL	-1.758319
-4.756983	AVAILABILITY	-0.712010
-3.691857	AVAILABLE	-1.007093
-4.756983	AVALANCHE	-1.758319
-4.756983	AVE	-0.013935
-4.369654	AVENUE	-1.809471
-3.719085	AVERAGE	-0.656312
-4.756983	AVERAGED	-0.712010
-4.756983	AVERT	-0.013935
-4.756983	AVERTED	-0.013935
-4.369654	AVIATION	-0.286346
-4.756983	AVID	-1.758319
-4.756983	AVO	-0.712010
-4.369654	AVOID	-0.344343
-4.756983	AVOIDANCE	-0.013935
-4.518024	AVOIDED	-0.401567
-4.619262	AVOIDING	-0.307212
-4.619262	AWAIT	-0.013935
-4.756983	AWAITING	-0.013935
-4.756983	AWAKEN	-0.013935
-4.756983	AWAKENING	-0.712010
-4.619262	AWARD	-1.277587
-4.756983	AWARDED	-1.758319
-4.756983	AWARDING	-0.712010
-4.619262	AWARDS	-1.711618
-4.518024	AWARE	-2.059349
-4.756983	AWARENESS	-1.758319
-4.756983	AWASH	-0.013935
-3.424502	AWAY	-1.203331
-4.619262	AWFUL	-1.758319
-4.756983	AWHILE	-0.013935
-4.619262	AWKWARD	-0.013935
-4.369654	AXIS	-1.976557
-4.619262	AYATOLLAH	-0.013935
-4.756983	AZIDOTHYMIDINE	-1.934410
-4.518024	B	-2.110501
-3.469539	B.	-0.933825
-4.619262	B.'S	-0.013935
-4.619262	BA	-0.148553
-4.756983	BAB	-0.013935
-4.756983	BABE	-0.013935
-4.756983	BABIES	-0.013935
-4.756983	BABIES'	-0.712010
-4.259270	BABY	-1.300612
-4.619262	BABY'S	-2.332350
-4.756983	BACHE	-2.270202
-3.260243	BACK	-0.567646
-4.756983	BACKACHE	-0.013935
-4.098237	BACKED	-0.733921
-4.619262	BACKER	-1.855229
-4.756983	BACKERS	-1.934410
-4.756983	BACKFIRE	-0.013935
-4.518024	BACKGROUND	-0.013935
-4.369654	BACKING	-0.761869
-4.756983	BACKLIST	-0.013935
-4.518024	BACKLOG	-0.396504
-4.619262	BACKLOGS	-0.712010
-4.518024	BACKS	-0.761869
-4.756983	BACKSIDE	-1.758319
-4.756983	BACKTRACK	-0.013935
-4.756983	BACKUPS	-0.013935
-4.756983	BACKWATER	-0.013935
-4.756983	BACOT	-0.013935
-3.642042	BAD	-0.975630
-4.171332	BADLY	-0.560527
-4.756983	BAFFLES	-0.013935
-4.756983	BAFFLING	-1.758319
-4.035690	BAG	-1.246203
-4.756983	BAGGAGE	-0.013935
-4.518024	BAGHDAD	-0.307212
-4.369654	BAGS	-1.620010
-4.756983	BAHRAIN	-0.013935
-4.756983	BAHRAINI	-0.013935
-4.756983	BAIL	-1.758319
-4.619262	BAILOUT	-0.148553
-4.619262	BAILOUTS	-1.758319
-4.619262	BAIRNCO	-0.013935
-4.756983	BAK	-0.712010
-4.035690	BAKER	-0.368533
-4.756983	BAKER'S	-0.712010
-4.756983	BAKERS	-0.013935
-4.369654	BAKERY	-0.851181
-4.756983	BAKES	-0.013935
-4.756983	BAL	-0.712010
-4.098237	BALANCE	-0.824219
-4.518024	BALANCED	-0.724080
-4.756983	BALANCES	-1.633380
-4.619262	BALANCING	-0.148553
-4.619262	BALCOR	-0.712010
-4.756983	BALDING	-0.013935
-4.756983	BALK	-1.934410
-4.619262	BALKED	-1.633380
-4.171332	BALL	-2.216957
-4.756983	BALLANTINE	-0.712010
-4.756983	BALLET	-0.013935
-4.756983	BALLISTIC	-0.013935
-4.756983	BALLOON	-2.156259
-4.619262	BALLOT	-0.475685
-4.756983	BALLOTING	-0.013935
-4.756983	BALLOTS	-1.758319
-4.756983	BALLS	-2.110501
-4.518024	BALLY	-0.013935
-4.756983	BALLY'S	-0.013935
-4.619262	BALTIMORE	-0.475685
-4.756983	BALTIMORE'S	-0.712010
-4.756983	BALUKAS	-0.712010
-4.171332	BAN	-0.553959
-4.369654	BANC	-0.776715
-4.518024	BANCA	-0.475685
-4.756983	BANCO	-0.013935
-4.259270	BANCORP	-1.141574
-4.756983	BANCROFT	-1.758319
-4.756983	BANCSHARES	-1.633380
-4.369654	BAND	-0.560527
-4.756983	BANDAGED	-0.013935
-4.756983	BANDED	-1.758319
-4.756983	BANDS	-3.459455
-4.756983	BANDWAGON	-0.712010
-4.756983	BANE	-0.712010
-4.756983	BANESTO	-0.013935
-4.756983	BANESTO'S	-0.013935
-4.619262	BANG	-0.697534
-3.072760	BANK	-0.823800
-4.259270	BANK'S	-0.244680
-4.369654	BANKAMERICA	-0.489979
-4.619262	BANKAMERICA'S	-0.148553
-4.756983	BANKEN	-0.712010
-4.098237	BANKER	-0.556136
-3.888823	BANKERS	-0.505106
-4.518024	BANKERS'	-0.013935
-3.779268	BANKING	-0.365151
-4.619262	BANKRUPT	-0.600624
-4.619262	BANKRUPTCIES	-0.712010
-3.981028	BANKRUPTCY	-0.443954
-3.222825	BANKS	-0.637761
-4.171332	BANKS'	-0.136274
-4.756983	BANNED	-0.013935
-4.619262	BANS	-0.148553
-4.619262	BANTA	-0.148553
-4.518024	BANTAM	-0.712010
-4.035690	BAR	-0.577308
-4.756983	BARBARIANS	-0.013935
-4.756983	BARBED	-1.758319
-4.518024	BARBER	-1.277587
-4.619262	BARCLAYS	-1.758319
-4.756983	BARE	-0.013935
-4.619262	BARELY	-0.148553
-4.756983	BARENTS	-1.934410
-4.369654	BARGAIN	-0.542632
-4.369654	BARGAINING	-0.542632
-4.756983	BARGAINS	-0.013935
-4.756983	BARN	-0.712010
-4.619262	BARNEY	-0.013935
-4.619262	BAROMETERS	-0.475685
-4.756983	BARON	-0.013935
-4.756983	BARONS	-0.013935
-4.756983	BARRAGED	-0.013935
-4.756983	BARRED	-0.013935
-4.619262	BARREL	-0.886006
-4.756983	BARRELING	-0.013935
-4.756983	BARRELS	-0.712010
-4.756983	BARRETT	-0.013935
-4.619262	BARRIER	-0.148553
-4.756983	BARRIERS	-0.148553
-4.756983	BARRING	-0.013935
-4.756983	BARRINGTON	-0.013935
-4.756983	BARRIS	-0.013935
-4.756983	BARRON	-1.934410
-4.756983	BARRON'S	-0.013935
-4.756983	BARRY	-0.712010
-4.756983	BARS	-0.600624
-4.756983	BARTH	-0.712010
-4.756983	BARTLETT	-0.013935
-4.035690	BASE	-0.596016
-4.756983	BASEBALL'S	-0.013935
-3.188377	BASED	-0.957078
-4.756983	BASEMENT	-0.013935
-4.619262	BASES	-0.682688
-4.756983	BASH	-0.013935
-4.756983	BASHED	-1.934410
-4.098237	BASIC	-0.138190
-4.518024	BASICALLY	-0.297725
-4.756983	BASIL	-0.013935
-3.666236	BASIS	-0.700771
-4.756983	BASKET	-0.013935
-4.619262	BASKETBALL	-2.536470
-4.518024	BASKETS	-0.013935
-4.756983	BASRA	-0.013935
-4.619262	BASS	-0.148553
-4.756983	BASSETT	-0.712010
-4.756983	BAT	-0.013935
-4.756983	BATCH	-0.013935
-4.619262	BATES	-1.855229
-4.369654	BATH	-2.371103
-4.619262	BATHING	-1.758319
-4.518024	BATHROOM	-1.323092
-4.756983	BATHTUBS	-0.712010
-4.756983	BATTERED	-0.712010
-4.756983	BATTERIES	-0.013935
-4.259270	BATTLE	-0.429596
-4.756983	BATTLED	-0.013935
-4.619262	BATTLEFIELD	-1.633380
-4.518024	BATTLES	-0.712010
-4.518024	BATUS	-0.013935
-4.756983	BAUR	-0.013935
-4.756983	BAUSCH	-0.013935
-4.619262	BAY	-0.148553
-4.756983	BAYLESS	-0.712010
-4.756983	BAYLEY	-0.712010
-3.054133	BE	-0.797922
-4.756983	BEA	-0.013935
-4.259270	BEACH	-1.063978
-4.756983	BEACHHEAD	-1.633380
-4.756983	BEAM	-0.013935
-4.756983	BEAN	-0.013935
-4.619262	BEANS	-2.216957
-3.849154	BEAR	-1.278917
-4.756983	BEAR'S	-0.013935
-4.619262	BEARD	-0.811477
-4.369654	BEARS	-1.187838
-4.619262	BEAT	-0.396504
-4.756983	BEATING	-1.934410
-4.619262	BEATRICE	-1.518105
-4.756983	BEAUFORT	-0.712010
-4.756983	BEAUTI	-0.712010
-4.171332	BEAUTIFUL	-1.860697
-4.756983	BEAUTY	-0.013935
-3.779268	BECAME	-0.319655
-2.820190	BECAUSE	-1.016398
-4.756983	BECKER	-0.712010
-3.597358	BECOME	-0.756428
-4.259270	BECOMES	-1.369781
-4.369654	BECOMING	-0.312675
-4.171332	BED	-1.160019
-4.756983	BEDKE	-1.758319
-4.756983	BEDROCK	-0.013935
-4.171332	BEDROOM	-2.100970
-4.619262	BEDS	-1.958828
-4.756983	BEDSIDE	-0.013935
-4.369654	BEECH	-1.038152
-4.619262	BEEF	-0.013935
-4.756983	BEEFED	-1.633380
-3.454002	BEEN	-0.494888
-4.756983	BEENEY	-0.013935
-4.518024	BEER	-0.235635
-3.024760	BEFORE	-0.799406
-4.518024	BEG	-1.793081
-3.312061	BEGAN	-0.715682
-4.518024	BEGGAR	-1.940345
-4.756983	BEGGING	-0.712010
-4.098237	BEGIN	-0.417174
-4.756983	BEGINING	-0.712010
-3.888823	BEGINNING	-0.941604
-3.888823	BEGINS	-0.794583
-4.756983	BEGNS	-0.013935
-4.171332	BEGUN	-1.705157
-4.518024	BEHALF	-1.809471
-4.756983	BEHAVED	-0.013935
-4.171332	BEHAVIOR	-0.544940
-4.756983	BEHEST	-0.712010
-3.642042	BEHIND	-0.767839
-4.756983	BEIGE	-0.712010
-4.619262	BEIJING	-0.013935
-3.301191	BEING	-0.509222
-4.619262	BEIRUT	-0.475685
-4.518024	BEIRUT'S	-0.013935
-4.756983	BEKAA	-1.758319
-4.756983	BEKIN	-0.712010
-4.756983	BELATEDLY	-0.013935
-4.756983	BELEAGUERED	-0.712010
-4.619262	BELGIAN	-0.013935
-4.756983	BELGIQUE	-0.013935
-4.619262	BELIEF	-0.148553
-4.756983	BELIEFS	-1.758319
-3.519792	BELIEVE	-0.570462
-3.981028	BELIEVED	-0.593950
-4.756983	BELIEVER	-1.758319
-3.719085	BELIEVES	-0.373167
-4.369654	BELL	-0.148553
-4.756983	BELLEVUE	-0.013935
-4.756983	BELLIED	-0.013935
-4.259270	BELLS	-1.077745
-4.619262	BELLSOUTH	-0.013935
-4.756983	BELLSOUTH'S	-0.013935
-4.518024	BELONG	-0.089614
-4.619262	BELONGINGS	-0.013935
-3.691857	BELOW	-0.363050
-4.518024	BELT	-0.424649
-4.756983	BELVEDERE	-0.013935
-4.756983	BEM	-0.013935
-4.756983	BEMOANS	-0.013935
-4.518024	BENCHMARK	-1.476712
-4.756983	BEND	-0.712010
-4.756983	BENEATH	-0.712010
-4.756983	BENEDETTI	-0.013935
-4.369654	BENEFICIAL	-0.698830
-4.756983	BENEFICIARIES	-0.013935
-3.932483	BENEFIT	-0.549519
-4.518024	BENEFITED	-1.423715
-4.756983	BENEFITING	-1.758319
-3.719085	BENEFITS	-0.692052
-4.369654	BENETTON	-0.013935
-4.756983	BENHAM	-0.712010
-4.756983	BENNETT	-0.013935
-4.756983	BENSON	-0.013935
-4.619262	BENTSEN	-0.502535
-4.756983	BENTSEN'S	-1.758319
-4.756983	BENZ	-1.758319
-4.756983	BEREGOVOY	-1.758319
-4.756983	BERG	-0.013935
-4.756983	BERG'S	-0.013935
-4.756983	BERGER	-0.013935
-4.756983	BERLIN	-0.542632
-4.518024	BERMUDEZ	-0.013935
-4.756983	BERN	-0.013935
-4.756983	BERNHARD	-0.013935
-4.518024	BERNSTEIN	-0.307212
-4.756983	BERT	-0.013935
-4.756983	BERTELSMANN	-0.712010
-4.259270	BESIDES	-0.568359
-4.756983	BESSEMER	-0.013935
-3.519792	BEST	-0.698276
-4.259270	BET	-0.450861
-4.756983	BETHELL	-0.013935
-4.619262	BETS	-0.396504
-3.454002	BETTER	-0.422523
-4.756983	BETTING	-1.758319
-3.172127	BETWEEN	-0.637737
-4.756983	BEUTEL	-0.712010
-4.619262	BEVERLY	-2.156259
-4.756983	BEVY	-0.712010
-3.779268	BEYOND	-0.564024
-4.756983	BG_SPEECH	-0.013935
-4.619262	BIAS	-0.013935
-4.619262	BIASES	-2.156259
-4.756983	BIC	-1.934410
-4.756983	BICKERING	-0.013935
-4.756983	BICYCLE	-2.156259
-3.439002	BID	-0.801753
-4.756983	BIDCO	-0.013935
-4.756983	BIDCOS	-0.013935
-4.098237	BIDDER	-0.422518
-4.098237	BIDDERS	-0.244230
-4.259270	BIDDING	-0.873217
-4.619262	BIDEN	-0.542632
-4.619262	BIDERMAN	-0.013935
-4.035690	BIDS	-0.786268
-3.222825	BIG	-0.836224
-3.812806	BIGGER	-0.471902
-3.932483	BIGGEST	-0.311958
-4.756983	BIKE	-2.059349
-4.756983	BILATERAL	-0.013935
-3.485652	BILL	-0.774645
-4.756983	BILLINGS	-1.855229
-3.576629	BILLION	-1.629201
-4.619262	BILLIONS	-0.475685
-3.748135	BILLS	-0.874714
-4.756983	BILZERIAN	-0.235635
-4.619262	BIN	-0.013935
-4.756983	BINDER	-0.712010
-4.756983	BINDING	-0.712010
-4.756983	BINS	-0.013935
-4.756983	BIOLOGICAL	-0.013935
-4.756983	BIOLOGY	-1.934410
-4.619262	BIOTECH	-0.148553
-4.171332	BIOTECHNOLOGY	-0.344312
-4.756983	BIOTECHNOLOGY'S	-0.013935
-4.756983	BIR	-0.712010
-4.035690	BIRD	-2.639133
-4.756983	BIRDIE	-0.013935
-4.756983	BIRDS	-3.459455
-4.756983	BIRINYI	-1.758319
-4.756983	BIRNBAUM	-0.712010
-4.756983	BIRTH	-0.013935
-3.849154	BIRTHDAY	-1.499581
-4.756983	BIRTHDAY'S	-0.013935
-4.756983	BISCUITS	-2.498682
-4.619262	BISHOP	-1.758319
-4.756983	BISHOPSGATE	-0.712010
-4.518024	BIT	-0.284189
-4.756983	BITCH	-1.934410
-4.756983	BITE	-1.758319
-4.756983	BITS	-0.013935
-4.756983	BITTERLY	-0.013935
-4.756983	BITTERNESS	-0.013935
-4.259270	BIX	-1.883258
-4.756983	BJORN	-0.712010
-4.756983	BL	-0.712010
-4.756983	BLA	-0.013935
-3.642042	BLACK	-0.763383
-4.756983	BLACKBIRD	-2.197652
-4.756983	BLACKJACK	-0.013935
-4.756983	BLACKMAIL	-0.013935
-4.259270	BLACKS	-0.196159
-4.756983	BLACKSTONE'S	-0.013935
-4.756983	BLADDER	-0.013935
-4.756983	BLADES	-1.758319
-4.756983	BLAKELY	-1.758319
-4.756983	BLAKEY	-0.712010
-4.171332	BLAME	-1.082698
-4.518024	BLAMED	-0.013935
-4.619262	BLAMES	-0.013935
-4.619262	BLAND	-0.013935
-4.756983	BLANDER	-1.758319
-4.756983	BLANDNESS	-0.013935
-4.619262	BLANK	-0.013935
-4.756983	BLANKET	-0.013935
-4.756983	BLARES	-0.013935
-4.756983	BLASS	-0.148553
-4.756983	BLAST	-0.148553
-4.756983	BLASTS	-0.712010
-4.756983	BLEACHERS	-0.013935
-4.756983	BLEAK	-0.013935
-4.756983	BLEARY	-0.013935
-4.619262	BLESSING	-0.148553
-4.756983	BLEST	-0.013935
-4.619262	BLEW	-0.475685
-4.756983	BLIND	-0.148553
-4.756983	BLINK	-0.712010
-4.756983	BLISTERED	-1.758319
-4.756983	BLISTERING	-0.712010
-4.756983	BLITHELY	-0.013935
-4.756983	BLITZ	-0.712010
-4.756983	BLOB	-0.013935
-4.756983	BLOC	-1.855229
-3.932483	BLOCK	-1.041219
-4.756983	BLOCK'S	-0.013935
-4.619262	BLOCKED	-0.013935
-4.619262	BLOCKING	-0.148553
-4.756983	BLOCKS	-0.712010
-4.619262	BLOND	-2.603417
-4.259270	BLOOD	-0.636930
-4.619262	BLOOM	-0.148553
-4.619262	BLOUSES	-2.647621
-4.518024	BLOW	-0.396504
-4.619262	BLOWING	-0.013935
-4.756983	BLOWN	-0.013935
-3.932483	BLUE	-0.851990
-4.518024	BLUES	-2.332350
-4.756983	BLUNDERS	-1.758319
-4.756983	BLUNT	-0.013935
-4.756983	BLUSH	-0.712010
-4.756983	BO	-0.712010
-3.323210	BOARD	-0.588211
-4.518024	BOARD'S	-0.089614
-4.756983	BOARDROOM	-0.013935
-4.369654	BOARDS	-0.685273
-4.756983	BOASTING	-0.712010
-4.518024	BOASTS	-0.404122
-4.259270	BOAT	-1.342850
-4.756983	BOATING	-0.712010
-4.756983	BOATMEN'S	-0.712010
-4.756983	BOATS	-0.013935
-4.259270	BOB	-1.056470
-4.756983	BOB'S	-1.758319
-4.619262	BOCA	-1.934410
-4.756983	BOCK	-0.013935
-4.035690	BODY	-0.951168
-4.619262	BOEING	-0.013935
-4.756983	BOEING'S	-0.712010
-4.259270	BOESKY	-0.627679
-4.619262	BOESKY'S	-0.013935
-4.756983	BOFFO	-0.013935
-4.756983	BOG	-0.013935
-4.756983	BOGLE	-1.758319
-4.756983	BOGUS	-0.013935
-4.756983	BOIES	-0.013935
-4.756983	BOILING	-2.235440
-4.756983	BOKSEN	-0.013935
-4.619262	BOLAND	-1.633380
-4.619262	BOLD	-0.600624
-4.756983	BOLDER	-0.712010
-4.756983	BOLDLY	-0.013935
-4.756983	BOLEN	-0.013935
-4.619262	BOLSTERED	-1.855229
-4.619262	BOMB	-0.724080
-4.756983	BOMBER	-0.013935
-4.756983	BON	-0.712010
-4.619262	BONANZA	-0.148553
-3.424502	BOND	-0.751138
-4.756983	BOND'S	-0.013935
-4.259270	BONDHOLDERS	-0.253079
-3.346405	BONDS	-0.689620
-4.619262	BONE	-0.761869
-4.756983	BONF	-0.712010
-4.518024	BONFIRE	-2.332350
-4.619262	BONIN	-0.013935
-4.756983	BONN	-0.712010
-4.756983	BONNET	-1.758319
-4.756983	BONNEVILLE	-0.013935
-4.756983	BONT	-0.712010
-4.259270	BONUS	-1.532860
-4.098237	BONUSES	-0.428479
-3.597358	BOOK	-1.280185
-4.756983	BOOKER	-1.758319
-3.748135	BOOKS	-0.789842
-4.619262	BOOKSTORE	-0.013935
-4.756983	BOOKSTORES	-1.758319
-4.035690	BOOM	-0.322983
-4.756983	BOOMERS	-0.712010
-4.619262	BOOMING	-0.148553
-4.756983	BOOMS	-0.013935
-4.756983	BOON	-0.712010
-3.888823	BOOST	-0.342622
-4.035690	BOOSTED	-0.441985
-4.518024	BOOSTER	-0.483303
-4.756983	BOOSTING	-0.712010
-4.518024	BOOSTS	-0.235635
-4.619262	BOOTH	-0.013935
-4.518024	BOOTS	-0.935601
-4.619262	BORDEN	-0.712010
-4.756983	BORDEN'S	-0.712010
-4.259270	BORDER	-1.883258
-4.369654	BORDERS	-1.883258
-4.756983	BORED	-0.013935
-4.756983	BOREN	-1.758319
-4.369654	BORG	-2.059349
-4.756983	BORING	-0.013935
-4.518024	BORK	-0.371604
-4.518024	BORK'S	-0.013935
-4.619262	BORN	-0.013935
-4.619262	BORROW	-0.586856
-4.035690	BORROWED	-0.402150
-4.756983	BORROWER	-1.934410
-4.756983	BORROWERS	-0.712010
-3.981028	BORROWING	-0.459070
-4.619262	BORROWINGS	-0.502535
-4.619262	BOSKIN	-0.712010
-4.369654	BOSS	-0.909487
-4.756983	BOSS'S	-0.013935
-4.756983	BOSSES	-1.934410
-4.098237	BOSTON	-0.725956
-4.756983	BOSTON'S	-0.013935
-3.241131	BOTH	-1.088136
-4.756983	BOTHA	-1.758319
-4.756983	BOTHER	-0.712010
-4.756983	BOTHERING	-1.855229
-4.369654	BOTTLE	-2.548369
-4.756983	BOTTLED	-0.013935
-4.518024	BOTTLERS	-1.758319
-4.518024	BOTTLES	-1.786340
-4.619262	BOTTLING	-0.542632
-4.518024	BOTTOM	-1.934410
-4.756983	BOTTOMED	-1.758319
-3.619126	BOUGHT	-0.523531
-4.756983	BOUNCE	-0.712010
-4.619262	BOUND	-1.180677
-4.756983	BOUNDARY	-0.013935
-4.756983	BOUNDS	-0.712010
-4.756983	BOURSES	-0.712010
-4.756983	BOUT	-0.013935
-4.756983	BOWATER	-0.013935
-4.756983	BOWELS	-0.013935
-4.756983	BOWEN	-0.013935
-4.756983	BOWING	-0.712010
-4.619262	BOWL	-1.277317
-4.619262	BOWLING	-1.277587
-4.756983	BOWMAN	-0.013935
-3.849154	BOX	-2.253784
-4.619262	BOXERS	-1.430955
-4.619262	BOXING	-1.277587
-4.756983	BOXING'S	-0.013935
-3.981028	BOY	-0.768354
-4.756983	BOY'S	-1.633380
-4.756983	BOYCOTT	-0.712010
-4.259270	BOYS	-1.271565
-4.756983	BOZELL	-0.013935
-4.756983	BOZELL'S	-0.013935
-4.756983	BOZIAN	-1.934410
-4.756983	BR	-0.712010
-4.756983	BRA	-0.013935
-4.756983	BRACE	-0.712010
-4.756983	BRACED	-0.013935
-4.756983	BRACELET	-1.758319
-4.619262	BRACING	-1.855229
-4.756983	BRACKET	-0.013935
-4.518024	BRACKETS	-1.758319
-4.518024	BRADLEY	-0.013935
-4.756983	BRADLEY'S	-0.013935
-4.756983	BRADSTREET	-0.013935
-4.518024	BRADY	-0.819972
-4.756983	BRAG	-1.758319
-4.619262	BRAIN	-0.148553
-4.756983	BRAKEMEN	-1.758319
-4.259270	BRANCH	-0.262994
-4.369654	BRANCHES	-1.184280
-4.171332	BRAND	-1.837500
-4.756983	BRANDED	-0.712010
-4.518024	BRANDS	-0.089614
-4.756983	BRASILIA	-1.934410
-4.756983	BRAY	-1.633380
-3.981028	BRAZIL	-0.411017
-4.259270	BRAZIL'S	-0.521443
-4.369654	BRAZILIAN	-0.442529
-4.756983	BRAZILIANS	-1.934410
-4.756983	BREACH	-0.013935
-4.756983	BREACHED	-1.758319
-4.369654	BREAD	-2.099962
-4.035690	BREAK	-0.408124
-4.619262	BREAKDOWN	-0.148553
-4.369654	BREAKFAST	-1.068602
-4.518024	BREAKING	-0.502535
-4.756983	BREAKINS	-0.712010
-4.619262	BREAKS	-0.475685
-4.518024	BREAKTHROUGH	-0.611680
-4.756983	BREAKTHROUGHS	-0.712010
-4.619262	BREAKUP	-0.148553
-4.756983	BREAN	-1.758319
-4.756983	BREAST	-0.013935
-4.756983	BREATHE	-0.712010
-4.756983	BRED	-0.013935
-4.756983	BREEDING	-1.934410
-4.756983	BREEZE	-0.013935
-4.756983	BREITSCHWERDT	-1.758319
-4.756983	BREK	-0.013935
-4.756983	BRENDA	-0.013935
-4.756983	BRENDAN	-2.059349
-4.619262	BRENT	-0.013935
-4.756983	BRESSER	-0.013935
-4.518024	BREWING	-1.277587
-4.756983	BRIBERY	-1.758319
-4.756983	BRICK	-0.712010
-4.098237	BRIDGE	-1.096365
-4.756983	BRIDGETON	-0.712010
-4.369654	BRIEF	-0.424649
-4.756983	BRIEFCASE	-0.013935
-4.756983	BRIEFING	-0.013935
-4.619262	BRIEFLY	-0.013935
-4.756983	BRIERLEY	-0.013935
-4.756983	BRIGADE	-1.758319
-4.369654	BRIGHT	-0.776715
-4.756983	BRIGHTEST	-0.712010
-4.756983	BRIGHTLY	-1.590656
-4.756983	BRILLIANT	-0.013935
-4.619262	BRIMMER	-0.013935
-4.171332	BRING	-0.647230
-4.756983	BRINGING	-0.013935
-4.518024	BRINGS	-0.682688
-4.756983	BRINK	-0.712010
-4.756983	BRINKMAN	-0.712010
-4.619262	BRISK	-0.148553
-4.756983	BRISKER	-0.013935
-4.756983	BRISTLED	-0.013935
-3.932483	BRITAIN	-0.645102
-4.098237	BRITAIN'S	-0.618631
-4.756983	BRITANNIA	-0.013935
-3.719085	BRITISH	-0.413505
-4.756983	BRITONS	-0.712010
-4.756983	BRO	-0.013935
-4.098237	BROAD	-0.495793
-4.619262	BROADBENT	-0.013935
-4.369654	BROADCAST	-0.066613
-4.756983	BROADCASTER	-0.013935
-4.518024	BROADCASTERS	-0.013935
-4.259270	BROADCASTING	-2.504062
-4.518024	BROADCASTS	-0.404122
-4.518024	BROADEN	-0.542632
-4.756983	BROADENED	-0.013935
-4.369654	BROADER	-0.013935
-4.619262	BROADLY	-2.059349
-4.619262	BROCHURE	-1.934410
-4.756983	BROCK	-1.758319
-4.756983	BROCKTON	-0.712010
-4.756983	BROCKWAY	-0.712010
-4.756983	BRODY	-0.712010
-4.035690	BROKE	-0.444868
-4.035690	BROKEN	-1.163631
-3.932483	BROKER	-0.599940
-4.756983	BROKER'S	-0.712010
-3.888823	BROKERAGE	-0.968643
-4.619262	BROKERAGES	-0.475685
-3.849154	BROKERS	-0.479295
-4.756983	BROKERS'	-0.013935
-4.756983	BRONX	-0.712010
-4.756983	BROODING	-0.013935
-4.756983	BROOKLYN	-0.712010
-4.619262	BROOKS	-0.013935
-3.812806	BROTHER	-1.066834
-4.619262	BROTHER'S	-2.001357
-4.098237	BROTHERS	-0.496072
-3.981028	BROUGHT	-0.411019
-4.259270	BROWN	-1.298700
-4.756983	BROWNING	-0.013935
-4.756983	BROWNSVILLE	-1.758319
-4.756983	BRUCE	-0.712010
-4.756983	BRUNCH	-0.013935
-4.756983	BRUNO'S	-0.013935
-4.369654	BRUSH	-2.275047
-4.756983	BRUSHED	-1.758319
-4.756983	BRUSSELS	-0.013935
-4.756983	BRUYETTE	-0.013935
-4.756983	BR_SPEECH	-0.712010
-4.619262	BU	-0.013935
-4.756983	BUBBLING	-1.758319
-4.619262	BUCHANAN	-0.712010
-4.756983	BUCHAREST	-1.758319
-4.756983	BUCK	-0.013935
-4.756983	BUCKED	-0.712010
-4.756983	BUCKLEY	-1.758319
-4.756983	BUCKS	-0.712010
-4.756983	BUDDHISM	-1.633380
-3.556845	BUDGET	-0.507343
-4.756983	BUDGETARY	-0.712010
-4.756983	BUDGETS	-0.013935
-4.756983	BUFF	-0.013935
-4.518024	BUFFER	-0.502535
-4.756983	BUFFERED	-1.934410
-4.756983	BUFFETED	-0.013935
-4.756983	BUG	-1.633380
-4.756983	BUICK	-1.758319
-4.369654	BUILD	-0.528142
-3.748135	BUILDING	-0.621604
-3.932483	BUILDINGS	-0.872452
-4.756983	BUILDUP	-1.934410
-3.812806	BUILT	-0.422570
-4.756983	BULGARIA	-0.013935
-4.756983	BULK	-2.001357
-4.259270	BULL	-1.540361
-4.756983	BULLDOZERS	-0.013935
-4.756983	BULLETS	-1.758319
-4.619262	BULLISH	-0.712010
-4.619262	BULLS	-0.475685
-4.756983	BUM	-0.013935
-4.756983	BUMPY	-1.633380
-4.756983	BUMS	-0.013935
-4.369654	BUNDESBANK	-0.197989
-4.756983	BUNDESRAT	-1.758319
-4.756983	BUNDLE	-1.934410
-4.756983	BUNGALOW	-1.758319
-4.756983	BUNNIES	-1.934410
-4.756983	BUNTROCK	-0.013935
-4.619262	BUOY	-0.148553
-4.756983	BUOYANT	-0.013935
-4.619262	BUOYED	-1.277587
-4.619262	BURBANK	-0.148553
-4.756983	BURBANK'S	-0.712010
-4.619262	BURDEN	-0.475685
-4.756983	BURDENS	-1.758319
-4.518024	BUREAU	-0.089614
-4.756983	BUREAUCRACY	-0.712010
-4.756983	BUREAUCRATIC	-1.758319
-4.756983	BUREAUCRATS	-1.633380
-4.756983	BUREAUS	-1.633380
-4.756983	BURGEONING	-0.712010
-4.035690	BURGER	-0.922634
-4.756983	BURGERS	-0.013935
-4.518024	BURGLAR	-1.080628
-4.756983	BURGLEIR	-1.758319
-4.619262	BURIED	-0.148553
-4.619262	BURLINGTON	-0.013935
-4.756983	BURLY	-0.712010
-4.619262	BURMA	-0.013935
-4.518024	BURMAH	-0.712010
-4.756983	BURMESE	-0.013935
-4.619262	BURN	-1.532860
-4.619262	BURNED	-1.969172
-4.518024	BURNER	-1.969172
-4.518024	BURNHAM	-1.226756
-4.619262	BURNING	-0.475685
-4.756983	BURNLEY'S	-1.758319
-4.518024	BURNUP	-2.235440
-4.756983	BURROUGHS	-1.934410
-4.756983	BURSON	-0.013935
-4.756983	BURST	-0.013935
-4.518024	BUS	-0.230600
-4.518024	BUSES	-1.758319
-3.849154	BUSH	-0.443754
-4.369654	BUSH'S	-0.476783
-4.756983	BUSHBY	-0.712010
-4.619262	BUSHEL	-1.277587
-4.756983	BUSHKIN	-0.013935
-2.966381	BUSINESS	-0.599711
-4.756983	BUSINESS'S	-0.013935
-3.519792	BUSINESSES	-0.511284
-4.518024	BUSINESSMEN	-0.013935
-4.756983	BUST	-1.758319
-4.619262	BUSTING	-0.475685
-4.756983	BUSTLE	-0.013935
-4.756983	BUSTS	-0.013935
-4.619262	BUSY	-0.148553
-2.564848	BUT	-0.980413
-4.756983	BUTCHER	-0.712010
-4.756983	BUTCHER'S	-2.457289
-4.619262	BUTCHERS	-0.148553
-4.619262	BUTT	-0.475685
-4.756983	BUTTERED	-0.712010
-4.369654	BUTTERFLY	-2.270202
-4.756983	BUTTERSCOTCH	-0.013935
-4.756983	BUTTON	-0.013935
-4.756983	BUTTS	-0.712010
-4.756983	BUXOM	-1.633380
-3.454002	BUY	-0.918355
-4.518024	BUYBACK	-1.277587
-4.171332	BUYER	-0.269950
-4.098237	BUYERS	-0.400296
-3.485652	BUYING	-0.526684
-4.518024	BUYOUT	-0.066613
-4.756983	BUYOUTS	-0.013935
-4.619262	BUYS	-0.475685
-2.304531	BY	-0.842816
-4.756983	BYPASSES	-1.758319
-4.756983	BYRD	-0.013935
-4.756983	BYRNE	-0.013935
-4.518024	BYTE	-1.758319
-4.619262	C	-0.148553
-3.290586	C.	-0.713573
-4.259270	C.'S	-0.383256
-4.756983	C.S	-1.184280
-4.619262	CA	-1.423715
-4.518024	CAB	-1.925712
-4.756983	CABDRIVER	-0.013935
-4.756983	CABINET	-0.013935
-3.719085	CABLE	-0.873954
-4.756983	CACHET	-0.013935
-4.756983	CADENCE	-0.013935
-4.756983	CADRES	-1.758319
-4.756983	CADWALLADER	-0.013935
-4.259270	CAESARS	-0.381614
-4.756983	CAF	-0.712010
-4.756983	CAIRO	-0.712010
-4.259270	CAKE	-1.384593
-4.518024	CAKES	-0.796631
-4.756983	CALCULATE	-0.013935
-4.369654	CALCULATED	-1.277349
-4.756983	CALCULATION	-0.013935
-4.756983	CALCULATIONS	-0.013935
-4.619262	CALCULATOR	-2.457289
-4.619262	CALDERA	-0.013935
-4.756983	CALF	-0.013935
-4.756983	CALGARY	-1.758319
-3.576629	CALIFORNIA	-0.813702
-4.756983	CALIFORNIANS	-0.013935
-3.642042	CALL	-2.152971
-3.383701	CALLED	-0.935979
-4.756983	CALLER	-0.013935
-4.035690	CALLING	-0.885366
-3.537923	CALLS	-0.868090
-4.369654	CALM	-0.542632
-4.756983	CALMAT	-0.013935
-4.756983	CALMAT'S	-0.013935
-4.756983	CALMER	-0.712010
-4.756983	CALMING	-0.712010
-4.756983	CALOR	-0.712010
-4.756983	CALTON	-0.013935
-4.756983	CALVES	-1.758319
-4.518024	CAMBODIA	-1.633380
-4.756983	CAMBRIDGE	-0.712010
-3.312061	CAME	-0.699530
-4.619262	CAMERA	-0.600624
-4.756983	CAMERAMEN	-1.633380
-4.756983	CAMILLE	-1.855229
-4.369654	CAMP	-0.600624
-3.502386	CAMPAIGN	-0.704454
-4.619262	CAMPAIGN'S	-1.855229
-4.756983	CAMPAIGNED	-0.013935
-4.619262	CAMPAIGNING	-1.855229
-4.619262	CAMPAIGNS	-1.277587
-4.518024	CAMPBELL	-0.685273
-3.932483	CAMPEAU	-0.682688
-4.756983	CAMPEAU'S	-1.758319
-4.756983	CAMPS	-0.712010
-4.756983	CAMPUSES	-1.633380
-4.259270	CAMRO	-0.013935
-4.756983	CAMRY	-0.712010
-2.876940	CAN	-0.919803
-3.576629	CAN'T	-0.638037
-4.035690	CANADA	-0.445347
-3.888823	CANADIAN	-0.388884
-4.756983	CANCEL	-0.148553
-4.518024	CANCELED	-0.475685
-4.619262	CANCER	-0.396504
-4.619262	CANDIDACY	-0.475685
-3.981028	CANDIDATE	-0.337499
-4.756983	CANDIDATE'S	-0.712010
-4.098237	CANDIDATES	-0.325480
-4.756983	CANDIDATES'	-0.712010
-4.756983	CANDLESTICK	-0.013935
-4.756983	CANDOR	-0.013935
-4.369654	CANDY	-1.923870
-4.756983	CANE	-0.712010
-4.756983	CANINE	-0.013935
-4.756983	CANION	-0.013935
-4.756983	CANNED	-0.712010
-4.619262	CANNES	-1.758319
-4.756983	CANNIBALIZE	-1.758319
-3.849154	CANNOT	-0.469725
-4.756983	CANON	-0.712010
-4.518024	CANS	-2.059349
-4.756983	CANTANKEROUS	-0.013935
-4.756983	CANTER	-0.013935
-4.756983	CAO	-1.633380
-4.369654	CAP	-0.475685
-4.756983	CAPABILITIES	-0.013935
-4.756983	CAPABILITY	-1.758319
-4.259270	CAPABLE	-0.643880
-4.756983	CAPACITIES	-0.013935
-4.756983	CAPACITORS	-0.013935
-3.719085	CAPACITY	-1.666597
-3.241131	CAPITAL	-0.797776
-4.756983	CAPITALISM	-0.013935
-4.756983	CAPITALIST	-1.758319
-4.756983	CAPITALISTS	-0.502535
-4.756983	CAPITALIZATION	-0.013935
-4.756983	CAPITALIZE	-0.148553
-4.756983	CAPITALIZED	-0.013935
-4.619262	CAPITOL	-1.633380
-4.756983	CAPPY	-0.013935
-4.619262	CAPS	-0.013935
-4.518024	CAPTAIN	-0.089614
-4.756983	CAPTION	-0.013935
-4.756983	CAPTIVATED	-0.013935
-4.756983	CAPTIVE	-1.934410
-4.756983	CAPTURE	-1.758319
-4.756983	CAPTURED	-3.459455
-3.597358	CAR	-1.051813
-4.756983	CARBIDE	-0.013935
-4.518024	CARBIDE'S	-0.307212
-4.756983	CARBON	-3.455112
-4.035690	CARD	-0.636026
-4.756983	CARDBOARD	-1.758319
-4.756983	CARDINAL	-1.758319
-3.849154	CARDS	-0.819637
-3.779268	CARE	-0.297752
-4.619262	CAREER	-0.013935
-4.756983	CAREFREE	-0.013935
-4.369654	CAREFUL	-0.678895
-4.369654	CAREFULLY	-0.337499
-4.756983	CARETAKER	-1.758319
-4.619262	CARGO	-1.958467
-4.518024	CARL	-0.585778
-4.756983	CARLO	-0.013935
-4.756983	CARLOS	-1.758319
-4.756983	CARLSON	-0.712010
-4.619262	CARLUCCI	-0.396504
-4.756983	CARNATION	-0.712010
-4.619262	CARNEGIE	-0.013935
-4.756983	CARNEGIE'S	-0.013935
-4.756983	CARNER	-0.013935
-4.756983	CARNES	-0.712010
-4.756983	CARO	-1.758319
-4.518024	CAROL	-2.133983
-4.619262	CAROLINA	-1.679318
-4.756983	CAROLINAS	-0.712010
-4.518024	CARPET	-1.234945
-4.756983	CARPETING	-0.712010
-4.259270	CARRIED	-0.698212
-4.259270	CARRIER	-0.580025
-4.619262	CARRIER'S	-2.059349
-4.259270	CARRIERS	-0.387627
-4.619262	CARRIES	-2.001357
-4.619262	CARRINGTON	-1.934410
-4.756983	CARRINGTON'S	-1.934410
-4.756983	CARROLL	-0.013935
-4.619262	CARROTS	-2.332350
-3.932483	CARRY	-1.697090
-4.518024	CARRYING	-0.013935
-3.556845	CARS	-1.020933
-4.756983	CARSEY	-1.758319
-4.619262	CARSON	-0.013935
-4.756983	CARSON'S	-0.013935
-4.619262	CART	-1.277587
-4.756983	CARTEL	-0.013935
-4.171332	CARTER	-1.427773
-4.756983	CARTON	-0.013935
-4.619262	CARTOONS	-2.360379
-4.756983	CARVING	-0.013935
-4.756983	CAS	-0.712010
-3.358485	CASE	-0.563388
-4.756983	CASELOAD	-0.712010
-3.619126	CASES	-1.092259
-4.619262	CASEY	-0.013935
-4.756983	CASEY'S	-0.013935
-3.370910	CASH	-0.840060
-4.756983	CASHIER	-0.013935
-4.756983	CASHING	-1.934410
-4.756983	CASHMERE	-1.758319
-4.259270	CASINO	-1.277587
-4.756983	CASINOS	-0.013935
-4.756983	CASPAR	-0.013935
-4.756983	CASSEB	-0.712010
-4.619262	CASSETTE	-1.758319
-4.619262	CASSETTES	-0.475685
-4.035690	CAST	-0.597093
-4.756983	CASTING	-1.633380
-4.756983	CASTLE	-2.197652
-4.756983	CASTS	-1.855229
-4.259270	CASUAL	-1.350141
-4.518024	CASUALTY	-0.186133
-4.171332	CAT	-1.244980
-4.756983	CATAPULTED	-0.013935
-4.259270	CATCH	-1.915927
-4.756983	CATCHES	-0.712010
-4.756983	CATCHING	-1.758319
-4.518024	CATEGORIES	-0.475685
-4.619262	CATEGORY	-1.117333
-4.756983	CATERPILLAR	-0.712010
-4.756983	CATHOLICS	-0.013935
-4.518024	CATS	-0.736619
-4.518024	CATTLE	-0.013935
-4.756983	CATTLEMEN	-0.013935
-4.619262	CAUCUS	-0.475685
-4.518024	CAUCUSES	-0.651776
-4.098237	CAUGHT	-0.454262
-3.812806	CAUSE	-1.427654
-3.812806	CAUSED	-0.922634
-4.098237	CAUSES	-1.431471
-4.756983	CAUSEWAY	-0.013935
-4.369654	CAUSING	-0.685273
-4.756983	CAUSTIC	-0.712010
-4.518024	CAUTIONED	-1.423715
-4.259270	CAUTIOUS	-0.600624
-4.756983	CAVE	-2.270202
-4.756983	CAVIAR	-1.633380
-4.756983	CAYNE	-0.712010
-4.756983	CAYTON	-0.013935
-4.756983	CE	-0.712010
-4.756983	CEASE	-0.712010
-4.756983	CEASELESS	-0.013935
-4.756983	CEASING	-0.013935
-4.619262	CEAUSESCU	-0.307212
-4.756983	CECELIA	-0.013935
-4.756983	CEILING	-0.013935
-4.756983	CEILINGS	-0.013935
-4.518024	CELEBRATE	-2.059349
-4.756983	CELEBRATED	-0.712010
-4.756983	CELEBRATES	-0.013935
-4.756983	CELEBRATING	-2.059349
-4.619262	CELEBRITIES	-0.013935
-4.756983	CELLS	-1.758319
-4.756983	CELLULAR	-0.712010
-4.518024	CEMENT	-0.475685
-4.619262	CENT	-1.277587
-4.369654	CENTAUR	-0.297725
-3.812806	CENTER	-0.913975
-4.756983	CENTERIOR	-0.712010
-4.369654	CENTERRE	-0.235635
-4.171332	CENTERS	-0.647603
-3.642042	CENTRAL	-0.921905
-4.756983	CENTRALIZED	-0.013935
-4.756983	CENTRISTS	-1.934410
-3.556845	CENTS	-1.756331
-4.518024	CENTURY	-0.307212
-4.518024	CEREAL	-1.174049
-4.756983	CEREB	-0.712010
-4.756983	CEREMONIAL	-0.712010
-4.756983	CEREMONIES	-0.013935
-4.756983	CEREMONY	-0.013935
-3.485652	CERTAIN	-0.559684
-3.981028	CERTAINLY	-0.321109
-4.756983	CERTAINTY	-1.758319
-4.756983	CERTIFICATES	-0.712010
-4.756983	CERTIFICATION	-0.013935
-4.756983	CERTIFY	-0.712010
-4.756983	CES	-0.013935
-4.756983	CH	-0.013935
-4.756983	CHA	-0.013935
-4.756983	CHAGALL	-1.934410
-4.756983	CHAGRIN	-0.013935
-4.259270	CHAIN	-0.689281
-4.619262	CHAIN'S	-0.148553
-4.518024	CHAINS	-0.307212
-3.932483	CHAIR	-1.304721
-3.213954	CHAIRMAN	-0.654488
-4.518024	CHAIRMANSHIP	-0.013935
-4.756983	CHAIRMEN	-0.013935
-4.619262	CHAIRS	-0.600624
-4.171332	CHALLENGE	-0.970909
-4.518024	CHALLENGED	-1.117333
-4.619262	CHALLENGER	-0.013935
-4.756983	CHALLENGERS	-1.758319
-4.369654	CHALLENGES	-0.337499
-4.369654	CHALLENGING	-0.148553
-4.756983	CHALMERS	-0.013935
-4.619262	CHAMBER	-2.302387
-4.619262	CHAMP	-0.148553
-4.756983	CHAMPAGNE	-1.633380
-4.035690	CHAMPION	-1.484573
-4.756983	CHAMPIONED	-0.013935
-4.756983	CHAMPIONS	-1.758319
-4.756983	CHAMPIONSHIP	-1.758319
-3.888823	CHANCE	-0.881055
-4.756983	CHANCELLOR	-0.013935
-4.518024	CHANCES	-0.066613
-3.396880	CHANGE	-0.850406
-3.849154	CHANGED	-1.039280
-3.485652	CHANGES	-1.083741
-3.981028	CHANGING	-0.734167
-4.756983	CHANNEL	-0.712010
-4.756983	CHANNELL	-0.013935
-4.756983	CHANNELS	-1.758319
-4.756983	CHANOS	-0.013935
-4.756983	CHAOS	-0.013935
-4.756983	CHAOTIC	-0.712010
-4.756983	CHAP	-0.013935
-4.259270	CHAPTER	-2.253169
-4.171332	CHARACTER	-0.626953
-4.619262	CHARACTERISTIC	-1.633380
-4.756983	CHARACTERISTICS	-1.758319
-4.756983	CHARACTERIZE	-0.013935
-4.619262	CHARACTERIZED	-0.013935
-4.518024	CHARACTERS	-1.184280
-4.756983	CHARADE	-0.013935
-3.642042	CHARGE	-0.903140
-3.779268	CHARGED	-0.990418
-3.576629	CHARGES	-0.547379
-4.518024	CHARGING	-0.013935
-4.756983	CHARISMATIC	-0.013935
-4.756983	CHARITY	-1.934410
-4.369654	CHARLES	-0.013935
-4.756983	CHARLES'S	-0.013935
-4.756983	CHARLIE	-0.013935
-4.756983	CHARLIE'S	-0.235635
-4.756983	CHARLOTTE	-0.013935
-4.619262	CHARM	-1.423715
-4.619262	CHART	-1.758319
-4.619262	CHARTER	-0.148553
-4.619262	CHARTERED	-0.712010
-4.518024	CHARTS	-0.013935
-4.756983	CHASE	-0.712010
-4.619262	CHASE'S	-0.013935
-4.756983	CHASING	-1.934410
-4.756983	CHAT	-0.013935
-4.756983	CHATICHAI'S	-0.013935
-4.756983	CHATTING	-0.013935
-3.812806	CHEAP	-0.394254
-4.171332	CHEAPER	-0.604848
-4.756983	CHEAPLY	-0.712010
-4.756983	CHEAT	-0.712010
-4.756983	CHEATED	-0.712010
-4.756983	CHEATS	-1.758319
-4.369654	CHECK	-0.983718
-4.518024	CHECKED	-0.307212
-4.518024	CHECKING	-0.828816
-4.756983	CHECKOFF	-0.013935
-4.619262	CHECKOUT	-1.758319
-4.756983	CHECKS	-0.013935
-4.756983	CHEERING	-0.712010
-4.098237	CHEESE	-1.157197
-4.756983	CHEFS	-0.013935
-3.888823	CHEMICAL	-0.353293
-4.619262	CHEMICAL'S	-1.700327
-4.035690	CHEMICALS	-0.037726
-4.756983	CHEMINS	-0.013935
-4.756983	CHEMISTRY	-0.013935
-4.619262	CHEMLAWN	-0.013935
-4.756983	CHEN	-1.934410
-4.756983	CHEQUE	-0.013935
-4.756983	CHERNOBYL'S	-1.758319
-4.756983	CHEST	-1.758319
-4.756983	CHESTED	-0.013935
-4.518024	CHEVROLET	-1.758319
-4.518024	CHEVRON	-0.066613
-4.756983	CHEW	-1.754708
-4.518024	CHIAT	-0.013935
-3.932483	CHICAGO	-0.641938
-4.619262	CHICAGO'S	-0.013935
-4.259270	CHICKEN	-2.187667
-4.756983	CHICKENS	-0.013935
-3.346405	CHIEF	-1.028680
-4.756983	CHIEFS	-1.758319
-4.756983	CHIHUAHUA	-0.013935
-4.756983	CHIKOS	-0.712010
-4.756983	CHIL	-1.633380
-3.981028	CHILD	-1.389682
-4.756983	CHILD'S	-0.013935
-3.719085	CHILDREN	-0.788614
-4.756983	CHILDREN'S	-0.013935
-4.518024	CHILE	-0.148553
-4.756983	CHILI'S	-0.013935
-4.756983	CHILLED	-1.934410
-4.756983	CHILLING	-0.013935
-4.171332	CHINA	-1.697229
-4.171332	CHINA'S	-0.502535
-3.888823	CHINESE	-0.415143
-4.098237	CHIP	-0.686402
-3.812806	CHIPS	-0.958467
-4.756983	CHIRAC	-0.013935
-4.619262	CHIVES	-0.475685
-4.756983	CHLORINE	-0.013935
-4.756983	CHO	-0.013935
-4.035690	CHOCOLATE	-2.239331
-4.756983	CHOCOLATES	-0.013935
-4.756983	CHOI	-0.013935
-4.259270	CHOICE	-0.363348
-4.756983	CHOKING	-0.712010
-4.518024	CHOLESTEROL	-0.475685
-4.756983	CHOO	-0.712010
-4.756983	CHOONG	-0.013935
-4.171332	CHOOSE	-0.521443
-4.619262	CHOOSES	-0.475685
-4.518024	CHOOSING	-0.089614
-4.756983	CHOOSY	-1.758319
-4.619262	CHOP	-2.001357
-4.756983	CHOPIN	-1.758319
-4.756983	CHOPS	-1.934410
-4.756983	CHORUS	-0.013935
-4.619262	CHOSE	-2.110501
-4.369654	CHOSEN	-0.920061
-4.756983	CHOW	-0.013935
-4.619262	CHRIS	-0.013935
-4.369654	CHRISTIAN	-0.685273
-4.756983	CHRISTIANITY	-1.633380
-4.756983	CHRISTIANS	-0.013935
-4.756983	CHRISTIE'S	-2.059349
-4.259270	CHRISTMAS	-0.337499
-4.756983	CHRISTY	-0.013935
-4.756983	CHRONICLE'S	-1.934410
-4.756983	CHRONICLING	-1.633380
-3.932483	CHRYSLER	-0.575337
-4.369654	CHRYSLER'S	-0.371604
-4.756983	CHUM	-0.013935
-4.518024	CHUN	-0.502535
-4.756983	CHUN'S	-0.013935
-4.369654	CHUNK	-2.156259
-4.619262	CHURCH	-1.838440
-4.369654	CIGARETTE	-0.337499
-4.756983	CIGNA'S	-0.013935
-4.756983	CINCINNATI	-0.712010
-4.756983	CINDERELLA	-1.758319
-4.756983	CIPOLLONE	-1.758319
-4.756983	CIRCA	-1.758319
-4.098237	CIRCLE	-0.716838
-4.619262	CIRCLES	-0.013935
-4.756983	CIRCLING	-0.013935
-4.171332	CIRCUIT	-0.761869
-4.619262	CIRCULATED	-0.712010
-4.518024	CIRCULATION	-0.828816
-4.171332	CIRCUMSTANCES	-0.251843
-4.756983	CIRCUS	-0.712010
-4.756983	CITATION	-0.712010
-4.756983	CITE	-1.934410
-3.849154	CITED	-0.722614
-4.756983	CITEMENT	-0.013935
-4.619262	CITES	-0.148553
-4.619262	CITIBANK	-1.038152
-4.035690	CITICORP	-0.533943
-4.619262	CITICORP'S	-0.435589
-4.098237	CITIES	-0.757824
-4.518024	CITING	-0.089614
-4.756983	CITIZEN	-0.013935
-4.756983	CITIZENRY	-0.013935
-4.259270	CITIZENS	-0.257890
-4.756983	CITIZENS'	-0.013935
-3.642042	CITY	-1.081898
-4.518024	CITY'S	-0.309781
-4.619262	CITYFED	-0.712010
-4.259270	CIVIL	-0.510447
-4.619262	CIVILIAN	-0.396504
-4.619262	CL	-1.633380
-4.756983	CLA	-0.013935
-3.849154	CLAIM	-0.664180
-4.369654	CLAIMED	-0.337499
-4.619262	CLAIMING	-1.277587
-3.812806	CLAIMS	-0.572595
-4.619262	CLAMOR	-1.758319
-4.369654	CLAMP	-1.062899
-4.756983	CLAMS	-0.013935
-4.756983	CLARE	-1.758319
-4.756983	CLARENCE	-0.013935
-4.756983	CLARIDGE	-0.013935
-4.619262	CLARIFICATION	-1.423715
-4.756983	CLARIFY	-0.712010
-4.756983	CLARITY	-0.013935
-4.369654	CLARK	-0.307212
-4.756983	CLARK'S	-0.013935
-4.619262	CLARKE	-1.758319
-4.619262	CLASHED	-1.758319
-4.756983	CLASP	-0.013935
-3.597358	CLASS	-0.567648
-4.369654	CLASSES	-0.585778
-4.756983	CLASSIC	-0.636930
-4.369654	CLASSROOM	-2.222070
-4.756983	CLASSROOMS	-1.993590
-4.756983	CLAUDE	-1.934410
-4.619262	CLAUSE	-0.148553
-4.619262	CLAYTON	-0.475685
-4.518024	CLEAN	-0.475685
-4.619262	CLEANERS	-1.077745
-4.619262	CLEANS	-1.896622
-4.756983	CLEANUP	-0.013935
-3.666236	CLEAR	-1.119157
-4.619262	CLEARANCE	-0.475685
-4.619262	CLEARED	-0.013935
-4.756983	CLEAREST	-0.013935
-4.756983	CLEARING	-0.712010
-4.756983	CLEARINGHOUSE	-1.934410
-3.812806	CLEARLY	-0.482711
-4.756983	CLERICAL	-0.013935
-4.518024	CLERK	-0.230600
-4.518024	CLEVELAND	-0.089614
-4.369654	CLEVER	-0.976287
-4.756983	CLICHES	-0.013935
-4.171332	CLIENT	-1.027496
-4.756983	CLIENT'S	-0.712010
-4.756983	CLIENTELE	-0.013935
-3.666236	CLIENTS	-0.618803
-4.756983	CLIFF'S	-0.013935
-4.756983	CLIFTON	-1.758319
-4.756983	CLIMACTIC	-0.712010
-4.756983	CLIMATE	-1.758319
-4.369654	CLIMB	-0.089614
-3.932483	CLIMBED	-0.940193
-4.756983	CLIMBER	-1.758319
-4.756983	CLIMBING	-1.758319
-4.756983	CLINGING	-0.712010
-4.756983	CLINGS	-1.758319
-4.518024	CLINICAL	-0.600624
-4.756983	CLINICALLY	-0.013935
-4.756983	CLINICIANS	-0.013935
-4.756983	CLINTON	-0.712010
-4.756983	CLIQUES	-0.013935
-4.756983	CLO	-0.013935
-4.756983	CLOBBERED	-0.013935
-4.756983	CLOCK	-0.013935
-4.756983	CLOGGING	-0.013935
-4.619262	CLONE	-0.712010
-3.383701	CLOSE	-1.362453
-3.358485	CLOSED	-1.025686
-3.981028	CLOSELY	-0.674107
-4.518024	CLOSER	-0.376728
-4.619262	CLOSES	-0.013935
-4.756983	CLOSEST	-0.712010
-3.981028	CLOSING	-1.184912
-4.518024	CLOSINGS	-0.404122
-4.619262	CLOSURE	-1.758319
-4.756983	CLOT	-0.148553
-4.619262	CLOTH	-2.216957
-4.369654	CLOTHES	-2.235440
-4.518024	CLOTHING	-2.360379
-4.756983	CLOTS	-0.013935
-4.756983	CLOU	-0.013935
-4.619262	CLOUD	-0.013935
-4.756983	CLOUDED	-0.712010
-4.518024	CLOUDY	-0.697534
-4.619262	CLOUT	-0.013935
-4.619262	CLOWN	-2.302387
-4.619262	CLOWNS	-0.873625
-3.888823	CLUB	-0.614181
-4.619262	CLUBS	-0.396504
-4.756983	CLUE	-0.712010
-4.756983	CLUES	-0.013935
-4.518024	CLUMSY	-0.089614
-4.756983	CLUNKY	-0.013935
-4.756983	CLUTCHING	-2.001357
-4.619262	CLUTTER	-0.600624
-4.756983	CLUTTERED	-0.712010
-4.098237	CO	-0.450527
-4.756983	COA	-0.712010
-4.171332	COACH	-0.567899
-4.756983	COACHES	-0.013935
-4.518024	COACHING	-0.013935
-4.369654	COAL	-1.825266
-4.369654	COALITION	-0.371604
-4.369654	COAST	-0.649651
-4.619262	COASTAL	-0.148553
-4.756983	COASTER	-0.712010
-4.259270	COAT	-1.617722
-4.756983	COATS	-1.633380
-4.756983	COAX	-1.758319
-4.756983	COBRA	-0.013935
-4.259270	COCA	-2.110501
-4.619262	COCAINE	-0.013935
-4.756983	COCHAIRMAN	-0.013935
-4.756983	COCONUT	-2.156259
-4.369654	CODE	-0.475685
-4.756983	CODIFY	-0.013935
-4.756983	COEDUCATIONAL	-0.013935
-4.756983	COELHO	-0.013935
-3.981028	COFFEE	-1.378820
-4.756983	COFFERS	-0.712010
-3.981028	COHEN	-0.764691
-4.756983	COHERENCE	-1.758319
-4.369654	COIN	-2.346591
-4.369654	COINS	-2.554199
-4.756983	COKE	-0.013935
-4.756983	COLA	-0.682688
-4.756983	COLA'S	-0.307212
-4.756983	COLBYS	-0.013935
-4.259270	COLD	-0.567607
-4.756983	COLEMAN	-1.758319
-4.619262	COLESLAW	-1.838440
-4.756983	COLGATE	-1.758319
-4.756983	COLISEUM	-0.013935
-4.756983	COLLABORATION	-0.013935
-4.619262	COLLAPSE	-0.013935
-4.518024	COLLAPSED	-0.502535
-4.756983	COLLAR	-0.013935
-4.518024	COLLATERAL	-0.235635
-4.518024	COLLEAGUES	-0.013935
-4.756983	COLLECT	-0.712010
-4.518024	COLLECTED	-0.089614
-4.756983	COLLECTIBLES	-1.758319
-4.756983	COLLECTING	-0.013935
-4.619262	COLLECTION	-0.475685
-4.518024	COLLECTIONS	-0.475685
-4.756983	COLLECTOR'S	-0.712010
-4.619262	COLLECTORS	-0.697534
-4.518024	COLLECTS	-0.682688
-3.888823	COLLEGE	-0.565673
-4.619262	COLLEGES	-1.481707
-4.619262	COLLIER	-0.013935
-4.619262	COLLINS	-0.013935
-4.756983	COLLISION	-0.013935
-4.756983	COLLISIONS	-0.712010
-4.756983	COLLUDING	-1.758319
-4.619262	COLOMBIAN	-0.600624
-4.756983	COLOMBO	-0.013935
-4.259270	COLONEL	-0.966100
-4.756983	COLONY	-0.013935
-4.259270	COLOR	-2.457544
-4.619262	COLORADO	-0.013935
-4.619262	COLORED	-0.013935
-4.756983	COLOROLL	-0.712010
-4.518024	COLORS	-0.066613
-4.259270	COLOUR	-2.298073
-4.619262	COLOURED	-2.346591
-4.518024	COLOURFUL	-1.855229
-4.756983	COLOURS	-0.712010
-4.756983	COLOURVAN	-0.712010
-4.619262	COLUMBIA	-0.761869
-4.619262	COLUMBUS	-0.013935
-4.756983	COLUMN	-0.013935
-4.619262	COLUMNIST	-1.633380
-4.619262	COLUMNS	-0.013935
-4.756983	COM	-0.013935
-4.756983	COMA	-0.712010
-4.756983	COMBAT	-1.633380
-4.756983	COMBI	-1.758319
-4.259270	COMBINATION	-0.667771
-4.619262	COMBINE	-2.687738
-4.619262	COMBINED	-0.235635
-4.756983	COMBINING	-0.712010
-3.519792	COME	-1.121888
-4.756983	COMEDIAN	-1.758319
-4.756983	COMEDY	-0.013935
-3.719085	COMES	-1.187228
-4.259270	COMEX	-1.540361
-4.756983	COMFORT	-0.013935
-4.518024	COMFORTABLE	-0.682688
-4.619262	COMIC	-0.396504
-3.779268	COMING	-0.368590
-4.369654	COMMAND	-0.013935
-4.756983	COMMANDER	-1.758319
-4.756983	COMMANDERS	-0.013935
-4.619262	COMMANDING	-0.712010
-4.756983	COMMANDS	-1.758319
-4.756983	COMMENDED	-0.013935
-3.849154	COMMENT	-1.133915
-4.756983	COMMENTATOR	-1.934410
-4.619262	COMMENTING	-0.148553
-4.171332	COMMENTS	-0.339420
-4.369654	COMMERCE	-1.159300
-3.537923	COMMERCIAL	-0.718514
-4.756983	COMMERCIALE	-0.013935
-4.756983	COMMERCIALE'S	-0.013935
-4.518024	COMMERCIALS	-0.560527
-4.756983	COMMERZBANK	-1.758319
-4.756983	COMMISSAR	-1.934410
-3.619126	COMMISSION	-0.715116
-4.518024	COMMISSION'S	-0.712010
-4.756983	COMMISSIONED	-0.013935
-4.619262	COMMISSIONER	-0.148553
-4.619262	COMMISSIONERS	-1.758319
-4.518024	COMMISSIONS	-0.803991
-4.518024	COMMIT	-0.337499
-4.619262	COMMITMENT	-0.542632
-4.518024	COMMITMENTS	-0.502535
-4.756983	COMMITS	-0.013935
-3.981028	COMMITTED	-0.961441
-3.576629	COMMITTEE	-0.473475
-4.518024	COMMITTEE'S	-0.235635
-4.171332	COMMITTEES	-0.046710
-4.756983	COMMITTING	-0.712010
-4.518024	COMMODITIES	-1.758319
-3.981028	COMMODITY	-0.950681
-4.619262	COMMODORE	-0.712010
-3.370910	COMMON	-1.010037
-4.756983	COMMONALITY	-0.013935
-4.756983	COMMONLY	-1.758319
-4.756983	COMMUNICATED	-0.712010
-4.369654	COMMUNICATION	-0.754386
-4.518024	COMMUNICATIONS	-1.809471
-4.756983	COMMUNICATIONS'	-0.013935
-4.756983	COMMUNISM	-0.013935
-4.369654	COMMUNIST	-0.475685
-4.619262	COMMUNISTS	-1.700327
-4.369654	COMMUNITIES	-0.371604
-3.719085	COMMUNITY	-0.321444
-4.756983	COMMUTER	-0.013935
-4.756983	COMMUTES	-0.013935
-4.518024	COMPACT	-0.697534
-3.036272	COMPANIES	-0.772466
-4.518024	COMPANIES'	-0.297725
-4.756983	COMPANION	-0.712010
-4.518024	COMPANIONS	-2.223206
-2.876940	COMPANY	-0.841606
-3.888823	COMPANY'S	-0.531415
-4.756983	COMPANYWIDE	-0.013935
-4.756983	COMPAQ	-0.712010
-4.369654	COMPARABLE	-1.803436
-4.619262	COMPARATIVELY	-0.013935
-4.756983	COMPARE	-1.934410
-3.691857	COMPARED	-2.571232
-4.619262	COMPARES	-0.013935
-4.756983	COMPARING	-0.013935
-4.619262	COMPARISON	-1.633380
-4.756983	COMPEL	-0.013935
-4.619262	COMPENSATE	-1.758319
-4.756983	COMPENSATED	-0.013935
-3.981028	COMPENSATION	-0.563510
-4.756983	COMPENSATORY	-0.712010
-4.171332	COMPETE	-0.208323
-4.756983	COMPETENCE	-0.013935
-4.756983	COMPETENCY	-0.013935
-4.756983	COMPETES	-0.712010
-4.369654	COMPETING	-1.508176
-3.719085	COMPETITION	-0.747153
-3.932483	COMPETITIVE	-0.295678
-4.259270	COMPETITIVENESS	-0.955466
-4.619262	COMPETITOR	-0.542632
-4.259270	COMPETITORS	-0.697534
-4.619262	COMPLACENT	-1.532860
-4.619262	COMPLAIN	-0.404122
-4.171332	COMPLAINED	-0.307212
-4.756983	COMPLAINER	-0.013935
-4.756983	COMPLAINS	-0.013935
-3.849154	COMPLAINTS	-0.661322
-4.756983	COMPLEMENTS	-0.013935
-4.035690	COMPLETE	-1.538524
-3.888823	COMPLETED	-1.244949
-4.035690	COMPLETELY	-1.982154
-4.518024	COMPLETES	-0.013935
-4.756983	COMPLETING	-0.013935
-4.619262	COMPLETION	-1.758319
-4.035690	COMPLEX	-0.507662
-4.619262	COMPLIANCE	-0.712010
-4.756983	COMPLICATED	-0.013935
-4.756983	COMPLICATING	-1.934410
-4.756983	COMPLICATIONS	-0.013935
-4.756983	COMPLY	-0.013935
-4.619262	COMPONENT	-0.697534
-4.756983	COMPONENTS	-0.712010
-4.756983	COMPOSED	-0.013935
-4.035690	COMPOSITE	-0.933046
-4.756983	COMPOSITIONS	-0.013935
-4.756983	COMPOSURE	-0.013935
-4.756983	COMPOUNDED	-0.712010
-4.619262	COMPOUNDS	-0.148553
-4.756983	COMPREHEND	-1.934410
-4.756983	COMPREHENSION	-0.013935
-4.619262	COMPREHENSIVE	-0.148553
-4.756983	COMPRISE	-0.712010
-4.171332	COMPROMISE	-0.393564
-4.756983	COMPROMISED	-0.712010
-4.756983	COMPTROLLER	-0.013935
-4.756983	COMPTROLLER'S	-0.013935
-4.756983	COMPULSION	-0.013935
-4.756983	COMPUT	-0.013935
-3.439002	COMPUTER	-0.952030
-4.619262	COMPUTERIZED	-0.013935
-3.619126	COMPUTERS	-0.567190
-4.619262	COMPUTERVISION	-1.758319
-4.619262	COMPUTING	-0.013935
-4.756983	COMPUTRAC	-2.059349
-4.619262	CON	-2.156259
-4.756983	CONABLE	-0.013935
-4.756983	CONABLE'S	-0.013935
-4.756983	CONCEAL	-0.013935
-4.259270	CONCEDED	-0.552084
-3.932483	CONCEDES	-1.020010
-4.619262	CONCEDING	-0.475685
-4.756983	CONCEIVABLE	-1.758319
-4.756983	CONCEIVABLY	-1.758319
-4.619262	CONCENTRATE	-0.383256
-4.171332	CONCENTRATED	-0.532499
-4.518024	CONCENTRATING	-0.396504
-4.619262	CONCEPT	-1.518105
-4.619262	CONCEPTS	-0.013935
-4.518024	CONCEPTUAL	-0.013935
-3.396880	CONCERN	-0.666143
-3.981028	CONCERNED	-0.783822
-4.518024	CONCERNING	-0.148553
-3.849154	CONCERNS	-0.822484
-4.369654	CONCESSIONS	-0.066613
-4.171332	CONCLUDED	-2.031320
-4.756983	CONCLUDES	-0.013935
-4.369654	CONCLUSION	-1.040947
-4.756983	CONCLUSIONS	-0.013935
-4.756983	CONCLUSIVE	-0.712010
-4.756983	CONCORD	-1.633380
-4.369654	CONDITION	-0.309781
-4.756983	CONDITIONAL	-0.712010
-4.619262	CONDITIONED	-0.148553
-4.756983	CONDITIONING	-0.013935
-3.932483	CONDITIONS	-1.104331
-4.756983	CONDOMINIUM	-0.013935
-4.756983	CONDOMINIUMS	-0.013935
-4.756983	CONDOMS	-1.758319
-4.369654	CONDUCT	-1.934410
-4.518024	CONDUCTED	-0.235635
-4.756983	CONE	-0.712010
-4.756983	CONER	-0.712010
-3.888823	CONFERENCE	-0.286632
-4.756983	CONFERRED	-0.712010
-4.756983	CONFERS	-0.013935
-4.756983	CONFESS	-1.855229
-3.849154	CONFIDENCE	-0.803565
-4.518024	CONFIDENT	-0.066613
-4.756983	CONFIDENTIAL	-0.013935
-4.756983	CONFINED	-1.758319
-4.756983	CONFINES	-0.712010
-4.619262	CONFIRM	-0.148553
-4.619262	CONFIRMATION	-0.013935
-4.035690	CONFIRMED	-0.339420
-4.756983	CONFIRMING	-1.758319
-4.619262	CONFISCATED	-1.633380
-4.756983	CONFISCATION	-0.013935
-4.369654	CONFLICT	-0.437896
-4.619262	CONFLICTING	-1.855229
-4.369654	CONFLICTS	-0.796631
-4.756983	CONFORM	-0.013935
-4.756983	CONFOUNDS	-1.855229
-4.756983	CONFRONT	-1.758319
-4.098237	CONFRONTATION	-0.357664
-4.756983	CONFRONTATIONS	-0.013935
-4.756983	CONFRONTED	-0.013935
-4.756983	CONFU	-0.013935
-4.756983	CONFUCIAN	-1.633380
-4.518024	CONFUSED	-1.855229
-4.756983	CONFUSEN	-0.712010
-3.932483	CONFUSION	-1.229013
-4.756983	CONFUSIONS	-0.013935
-4.756983	CONGLOMERATES	-1.758319
-3.410472	CONGRESS	-0.970671
-4.619262	CONGRESS'S	-0.148553
-3.812806	CONGRESSIONAL	-0.383474
-4.098237	CONGRESSMEN	-0.232032
-4.619262	CONISTON	-0.475685
-4.756983	CONJUNCTION	-1.855229
-4.756983	CONLEY	-0.712010
-4.756983	CONNALLY	-0.712010
-4.756983	CONNECT	-0.013935
-4.259270	CONNECTICUT	-0.311071
-4.756983	CONNECTING	-0.013935
-4.619262	CONNECTION	-2.156259
-4.756983	CONNERY	-0.013935
-4.756983	CONNOTATIONS	-0.013935
-4.756983	CONQUERED	-1.633380
-4.756983	CONRAIL	-0.013935
-4.756983	CONRAIL'S	-0.013935
-4.756983	CONRAN	-0.013935
-4.756983	CONS	-0.013935
-4.619262	CONSCIOUS	-0.600624
-4.259270	CONSECUTIVE	-1.555894
-4.518024	CONSENSUS	-1.680832
-4.756983	CONSENT	-0.712010
-4.756983	CONSENTING	-0.013935
-4.756983	CONSEQUENCES	-0.712010
-4.518024	CONSEQUENTLY	-0.404122
-4.619262	CONSERVATION	-0.013935
-4.619262	CONSERVATISM	-0.013935
-3.981028	CONSERVATIVE	-0.411016
-4.369654	CONSERVATIVES	-0.724080
-4.756983	CONSERVATIVES'	-0.712010
-4.756983	CONSERVATORY	-0.013935
-3.849154	CONSIDER	-0.452894
-4.035690	CONSIDERABLE	-0.415380
-4.259270	CONSIDERABLY	-1.430955
-4.369654	CONSIDERATION	-0.643880
-4.369654	CONSIDERATIONS	-1.598353
-3.719085	CONSIDERED	-0.605004
-3.812806	CONSIDERING	-0.616520
-4.756983	CONSIDERS	-0.712010
-4.619262	CONSIST	-0.475685
-4.518024	CONSISTED	-0.697534
-4.518024	CONSISTENT	-0.682688
-4.518024	CONSISTENTLY	-1.277587
-4.259270	CONSISTS	-1.226756
-4.756983	CONSOLIDATE	-1.934410
-4.619262	CONSOLIDATED	-0.013935
-4.756983	CONSOLIDATES	-0.013935
-4.518024	CONSOLIDATING	-0.611680
-4.619262	CONSOLIDATION	-0.542632
-4.756983	CONSOLIDATIONS	-0.712010
-4.756983	CONSORTIUM	-0.712010
-4.756983	CONSPICUOUSLY	-0.712010
-4.518024	CONSPIRACY	-0.724080
-4.756983	CONSTANT	-0.013935
-4.619262	CONSTANTLY	-0.396504
-4.518024	CONSTITUENCY	-1.934410
-4.756983	CONSTITUENTS	-1.758319
-4.756983	CONSTITUTES	-0.013935
-4.259270	CONSTITUTION	-0.307212
-4.171332	CONSTITUTIONAL	-0.155452
-4.756983	CONSTITUTIONALITY	-0.013935
-4.619262	CONSTRAINTS	-1.855229
-4.518024	CONSTRUCTED	-1.277587
-4.756983	CONSTRUCTING	-1.758319
-3.748135	CONSTRUCTION	-0.724046
-4.756983	CONSTRUCTIVE	-1.758319
-4.756983	CONSULATES	-1.758319
-4.756983	CONSULT	-1.277587
-4.259270	CONSULTANT	-0.253079
-4.756983	CONSULTANT'S	-0.013935
-4.518024	CONSULTANTS	-0.502535
-4.756983	CONSULTATION	-0.013935
-4.619262	CONSULTED	-0.148553
-4.098237	CONSULTING	-0.339420
-4.619262	CONSUME	-1.758319
-4.756983	CONSUMED	-0.712010
-3.691857	CONSUMER	-0.556297
-4.756983	CONSUMERIST	-0.013935
-3.691857	CONSUMERS	-0.327467
-4.756983	CONSUMERS'	-0.013935
-4.756983	CONSUMES	-0.013935
-4.518024	CONSUMING	-2.216957
-4.035690	CONSUMPTION	-0.463684
-4.259270	CONTACT	-0.806825
-4.756983	CONTACTED	-0.013935
-4.518024	CONTACTS	-0.235635
-4.756983	CONTAGIOUS	-0.013935
-4.619262	CONTAIN	-0.013935
-4.369654	CONTAINED	-0.723062
-4.619262	CONTAINER	-0.148553
-4.619262	CONTAINMENT	-0.724080
-4.369654	CONTAINS	-0.475685
-4.756983	CONTAMINANTS	-1.758319
-4.756983	CONTAMINATE	-1.758319
-4.619262	CONTAMINATED	-1.758319
-4.619262	CONTAMINATION	-0.013935
-4.756983	CONTEMPLATE	-0.712010
-4.756983	CONTEMPLATED	-1.934410
-4.756983	CONTEMPLATES	-0.013935
-4.619262	CONTEMPORARY	-0.776715
-4.756983	CONTEMPT	-0.013935
-4.259270	CONTEND	-0.465830
-4.518024	CONTENDED	-0.502535
-4.756983	CONTENDERS	-0.712010
-3.812806	CONTENDS	-0.809769
-4.518024	CONTENT	-0.396504
-4.756983	CONTENTION	-0.013935
-4.756983	CONTENTIOUS	-0.013935
-4.756983	CONTEST	-0.013935
-4.756983	CONTESTANT	-0.013935
-4.619262	CONTESTED	-1.758319
-4.756983	CONTINENT'S	-0.013935
-4.259270	CONTINENTAL	-0.429596
-4.619262	CONTINENTAL'S	-0.013935
-4.369654	CONTINGENT	-0.337499
-4.756983	CONTINUATION	-1.758319
-3.748135	CONTINUE	-0.823190
-3.537923	CONTINUED	-0.936002
-3.888823	CONTINUES	-1.174655
-3.849154	CONTINUING	-0.567073
-4.756983	CONTINUOUSLY	-0.013935
-4.756983	CONTON	-0.013935
-4.171332	CONTRA	-0.478322
-3.519792	CONTRACT	-0.676541
-4.756983	CONTRACTED	-1.758319
-4.756983	CONTRACTING	-1.934410
-4.756983	CONTRACTION	-1.758319
-4.619262	CONTRACTORS	-0.066613
-3.691857	CONTRACTS	-0.697165
-4.518024	CONTRARY	-1.277587
-4.619262	CONTRAS	-0.937960
-4.619262	CONTRAST	-0.013935
-4.756983	CONTRASTS	-0.013935
-4.518024	CONTRIBUTE	-0.502535
-4.098237	CONTRIBUTED	-0.927983
-4.756983	CONTRIBUTING	-0.712010
-4.259270	CONTRIBUTION	-0.996859
-4.098237	CONTRIBUTIONS	-0.562835
-4.756983	CONTRIBUTOR	-1.758319
-4.756983	CONTRIVED	-0.013935
-3.370910	CONTROL	-0.802997
-4.098237	CONTROLLED	-0.333541
-4.756983	CONTROLLER	-0.013935
-4.756983	CONTROLLERS	-0.712010
-4.369654	CONTROLLING	-0.600624
-3.719085	CONTROLS	-0.510998
-4.619262	CONTROVERSIAL	-0.013935
-4.259270	CONTROVERSY	-0.442529
-4.619262	CONVENIENCE	-0.712010
-4.756983	CONVENIENT	-0.013935
-4.035690	CONVENTION	-0.861183
-3.932483	CONVENTIONAL	-0.586511
-4.619262	CONVENTIONALLY	-1.934410
-4.518024	CONVERSATION	-0.013935
-4.756983	CONVERSE	-0.013935
-4.756983	CONVERSELY	-1.758319
-4.756983	CONVERSION	-1.934410
-4.756983	CONVERSIONS	-1.758319
-4.619262	CONVERT	-1.423715
-4.518024	CONVERTED	-0.887886
-4.171332	CONVERTIBLE	-1.587426
-4.619262	CONVERTS	-1.809471
-4.518024	CONVICTED	-0.013935
-4.619262	CONVICTIONS	-1.277587
-4.756983	CONVINCE	-0.013935
-4.098237	CONVINCED	-0.909288
-4.098237	COOK	-1.106903
-4.518024	COOKING	-1.019753
-4.369654	COOL	-0.626953
-4.756983	COOLED	-1.758319
-4.756983	COOLER	-0.712010
-4.756983	COOLING	-1.758319
-4.756983	COOLLY	-1.758319
-4.756983	COOLNESS	-0.013935
-4.756983	COONEY	-0.013935
-4.619262	COOPERATE	-0.600624
-4.756983	COOPERATED	-0.013935
-4.171332	COOPERATION	-0.567899
-4.619262	COOPERATIVE	-1.855229
-4.756983	COORDINATE	-0.013935
-4.756983	COORDINATED	-1.855229
-4.756983	COORDINATION	-0.013935
-4.756983	COORS	-0.013935
-4.518024	COPE	-0.600624
-4.756983	COPIED	-1.758319
-4.756983	COPIERS	-0.712010
-4.518024	COPIES	-1.825266
-4.756983	COPLEY	-0.712010
-4.369654	COPPER	-1.896622
-4.518024	COPY	-0.013935
-4.518024	COPYRIGHTS	-1.356768
-4.756983	CORDOBAS	-1.934410
-4.171332	CORE	-0.266090
-3.888823	CORN	-0.354227
-4.756983	CORNEAS	-0.013935
-4.756983	CORNELL	-0.013935
-4.098237	CORNER	-2.186625
-4.756983	CORNERSTONE	-0.013935
-4.756983	CORNICHE	-0.013935
-4.756983	CORNUCOPIA	-0.013935
-4.756983	COROLLA	-0.712010
-4.756983	CORONA	-0.712010
-3.439002	CORPORATE	-0.389620
-4.756983	CORPORATES	-0.013935
-3.079151	CORPORATION	-0.546563
-4.171332	CORPORATION'S	-0.344312
-3.849154	CORPORATIONS	-0.510156
-4.518024	CORPS	-0.542632
-4.619262	CORRECT	-0.013935
-4.619262	CORRECTING	-1.758319
-4.756983	CORRECTION	-0.013935
-4.518024	CORRECTLY	-1.321810
-4.756983	CORRECTNESS	-0.013935
-4.756983	CORRESPOND	-1.758319
-4.756983	CORRESPONDENCE	-0.013935
-4.518024	CORRESPONDENT	-0.475685
-4.619262	CORRUPT	-0.148553
-4.619262	CORRUPTION	-0.475685
-4.756983	CORSAIR	-1.633380
-4.756983	COS	-0.013935
-4.518024	COSBY	-1.793081
-4.756983	COSMETIC	-0.013935
-4.756983	COSMIC	-1.758319
-3.323210	COST	-0.842503
-4.756983	COSTA	-0.013935
-4.756983	COSTING	-0.712010
-4.756983	COSTLIER	-1.758319
-4.619262	COSTLY	-1.423715
-3.396880	COSTS	-0.963389
-4.619262	COSTUMES	-0.013935
-4.756983	COT	-0.013935
-4.518024	COTTAGE	-0.475685
-4.518024	COTTON	-2.170499
-4.756983	COUGHING	-1.758319
-2.897633	COULD	-0.718319
-3.619126	COULDN'T	-0.579298
-4.035690	COUNCIL	-0.272223
-4.259270	COUNSEL	-0.371604
-3.981028	COUNT	-1.523668
-4.756983	COUNTED	-0.013935
-4.756983	COUNTENANCE	-1.758319
-4.369654	COUNTER	-1.144182
-4.756983	COUNTERATTACKED	-1.758319
-4.756983	COUNTERCULTURE	-0.013935
-4.756983	COUNTERED	-0.013935
-4.756983	COUNTERFEIT	-0.013935
-4.756983	COUNTERFEITERS	-0.013935
-4.756983	COUNTERMEASURES	-0.013935
-4.619262	COUNTERPART	-0.148553
-4.619262	COUNTERPARTS	-0.148553
-4.518024	COUNTERPRODUCTIVE	-0.475685
-4.756983	COUNTERS	-1.758319
-4.756983	COUNTERSUIT	-0.013935
-4.619262	COUNTING	-0.600624
-4.619262	COUNTLESS	-0.148553
-3.719085	COUNTRIES	-1.309777
-3.932483	COUNTRY	-0.714048
-4.619262	COUNTRY'S	-0.516461
-4.619262	COUNTRYSIDE	-1.934410
-4.369654	COUNTS	-0.552084
-4.035690	COUNTY	-0.218999
-4.619262	COUP	-1.809471
-4.259270	COUPLE	-0.874329
-4.756983	COUPLED	-2.059349
-4.756983	COUPLES	-0.148553
-4.619262	COUPON	-0.485872
-4.756983	COUPONS	-0.013935
-4.098237	COURSE	-0.704267
-4.518024	COURSES	-0.235635
-3.576629	COURT	-0.695357
-4.369654	COURT'S	-0.344312
-4.756983	COURTHOUSE	-1.758319
-4.619262	COURTROOM	-0.013935
-4.098237	COURTS	-0.374915
-4.756983	COVENANT	-0.013935
-4.756983	COVENANTS	-0.013935
-4.369654	COVER	-0.394150
-3.932483	COVERAGE	-0.483568
-4.259270	COVERED	-0.253079
-4.619262	COVERING	-0.600624
-4.518024	COVERS	-0.502535
-4.756983	COVETED	-0.013935
-4.619262	COW	-0.013935
-4.619262	COWBOY	-2.633380
-4.518024	COWBOYS	-0.746544
-4.756983	COWS	-0.013935
-4.619262	COYNE	-1.758319
-4.369654	CRACK	-0.230600
-4.756983	CRACKED	-2.059349
-4.756983	CRACKING	-0.712010
-4.171332	CRACKS	-1.590656
-4.518024	CRAFT	-0.396504
-4.756983	CRAFT'S	-0.013935
-4.619262	CRAFTED	-1.423715
-4.756983	CRAFTS	-0.542632
-4.756983	CRAM	-0.013935
-4.756983	CRAMMING	-1.758319
-4.756983	CRANBERRY	-1.758319
-4.756983	CRAPS	-0.013935
-3.849154	CRASH	-0.738483
-4.756983	CRASH'S	-0.013935
-4.756983	CRASHED	-0.013935
-4.619262	CRASHING	-0.148553
-4.098237	CRAY	-0.741938
-4.259270	CRAYONS	-2.687738
-4.619262	CRAZE	-0.013935
-4.756983	CRAZIES	-0.013935
-4.171332	CRAZY	-0.897162
-4.518024	CREAM	-0.927649
-3.981028	CREATE	-0.741053
-3.849154	CREATED	-0.514068
-4.756983	CREATES	-1.633380
-4.369654	CREATING	-0.502535
-4.619262	CREATION	-1.758319
-4.369654	CREATIVE	-0.757824
-4.619262	CREATIVITY	-2.059349
-4.518024	CREATURE	-1.590656
-4.259270	CREDIBILITY	-0.257890
-3.537923	CREDIT	-0.763623
-4.619262	CREDITED	-0.475685
-4.369654	CREDITOR	-0.620732
-3.932483	CREDITORS	-0.963172
-4.518024	CREDITS	-0.757824
-4.756983	CREDITWORTHY	-0.712010
-4.756983	CREEPING	-0.013935
-4.756983	CREPT	-1.758319
-4.619262	CRESAP	-1.633380
-4.619262	CREW	-1.758319
-4.619262	CRIME	-1.758319
-4.518024	CRIMES	-0.307212
-4.098237	CRIMINAL	-0.148553
-4.756983	CRINGE	-0.013935
-4.518024	CRIPPLED	-0.013935
-4.619262	CRISES	-0.013935
-3.888823	CRISIS	-0.692528
-4.756983	CRISP	-1.758319
-4.619262	CRITERIA	-0.475685
-4.756983	CRITERION	-0.712010
-4.259270	CRITICAL	-0.269645
-4.756983	CRITICALLY	-1.758319
-4.035690	CRITICISM	-0.969362
-4.756983	CRITICISMS	-1.758319
-4.756983	CRITICIZE	-0.013935
-4.619262	CRITICIZED	-1.758319
-4.756983	CRITICIZING	-0.013935
-4.171332	CRITICS	-0.949859
-4.756983	CROCODILE	-1.758319
-4.756983	CRONYISM	-0.013935
-3.981028	CROP	-0.489936
-4.756983	CROPPED	-0.712010
-4.518024	CROPS	-1.180677
-4.518024	CROSS	-0.636930
-4.756983	CROSSBORDER	-1.934410
-4.756983	CROSSED	-0.013935
-4.756983	CROSSING	-0.013935
-4.619262	CROWD	-0.175482
-4.518024	CROWDED	-0.013935
-4.756983	CROWDING	-0.013935
-4.756983	CROWE	-0.542632
-4.756983	CROWN	-0.013935
-4.518024	CROWTHER	-0.712010
-4.171332	CRUCIAL	-0.800252
-4.098237	CRUDE	-0.434720
-4.369654	CRUISE	-1.418363
-4.756983	CRUISER	-0.013935
-4.619262	CRUISES	-0.013935
-4.619262	CRUNCH	-0.013935
-4.756983	CRUSADER	-0.013935
-4.619262	CRUSH	-0.600624
-4.518024	CRY	-0.712010
-4.619262	CUBA	-0.148553
-4.756983	CUBIC	-0.013935
-4.756983	CULLINET	-1.758319
-4.619262	CULPABILITY	-1.277587
-4.369654	CULTURAL	-0.475685
-4.619262	CULTURE	-0.475685
-4.756983	CUMEN	-0.013935
-4.756983	CUMMINGS	-0.013935
-4.756983	CUNNINGHAM	-1.934410
-4.619262	CUOMO	-0.148553
-4.259270	CUP	-1.112507
-4.756983	CURB	-1.423715
-4.756983	CURBED	-0.013935
-4.756983	CURE	-1.758319
-4.756983	CURFEW	-0.013935
-4.756983	CURIOS	-0.013935
-4.619262	CURIOSITY	-2.156259
-4.171332	CURRENCIES	-0.466809
-3.748135	CURRENCY	-0.650821
-4.756983	CURRENCY'S	-0.013935
-3.556845	CURRENT	-0.437368
-3.576629	CURRENTLY	-0.375004
-4.756983	CURRENTS	-0.013935
-4.756983	CURT	-0.712010
-4.756983	CURTAIL	-1.855229
-4.756983	CURTAILED	-0.013935
-4.756983	CURTAILING	-0.013935
-4.619262	CURTAIN	-2.270202
-4.756983	CURTAINS	-0.712010
-4.756983	CURTIS	-1.855229
-4.756983	CURTISS	-0.712010
-4.756983	CURVE	-0.712010
-4.756983	CUSHIONED	-0.013935
-4.756983	CUSHIONS	-0.712010
-4.756983	CUSHMAN	-0.013935
-4.619262	CUSTODIANS	-0.712010
-4.619262	CUSTOM	-0.013935
-4.756983	CUSTOMARY	-0.712010
-4.171332	CUSTOMER	-0.363348
-3.556845	CUSTOMERS	-0.966100
-4.756983	CUSTOMERS'	-0.013935
-4.756983	CUSTOMS	-2.156259
-3.454002	CUT	-0.865425
-4.756983	CUTBACKS	-1.758319
-4.756983	CUTE	-0.013935
-3.981028	CUTS	-0.589085
-4.259270	CUTTING	-0.266197
-4.171332	CYCLE	-0.644290
-4.619262	CYCLICAL	-0.013935
-4.756983	CYNICAL	-1.758319
-4.619262	CYNICISM	-0.475685
-4.756983	CYRUS	-1.758319
-4.756983	CZARS	-0.013935
-4.756983	D	-0.712010
-3.519792	D.	-0.737158
-4.756983	D.'S	-0.013935
-4.619262	D.S	-0.013935
-4.756983	DA	-0.013935
-4.518024	DAD	-1.652804
-4.756983	DAD'S	-0.013935
-4.756983	DAE	-0.712010
-4.619262	DAHL	-0.013935
-3.981028	DAILY	-0.339947
-4.619262	DAIMLER	-1.758319
-4.756983	DAIRIES	-0.013935
-4.619262	DAIRY	-0.475685
-4.619262	DAKOTA	-0.404122
-4.756983	DALEY	-0.013935
-4.171332	DALLAS	-0.396504
-4.756983	DALLAS'S	-1.758319
-4.756983	DALY	-0.013935
-4.756983	DAM	-0.013935
-3.932483	DAMAGE	-0.722614
-4.518024	DAMAGED	-0.404122
-4.259270	DAMAGES	-0.392588
-4.756983	DAMAGING	-0.712010
-4.619262	DAMN	-0.475685
-4.756983	DAMNED	-0.013935
-4.756983	DAMNING	-1.758319
-4.756983	DAMORE	-2.059349
-4.756983	DAMP	-0.013935
-4.756983	DAMS	-0.013935
-4.518024	DAN	-0.712010
-4.756983	DANA	-0.013935
-4.756983	DANBURY	-0.013935
-4.518024	DANCE	-0.810383
-4.756983	DANCING	-0.013935
-4.756983	DANES	-0.013935
-4.171332	DANGER	-0.898781
-4.171332	DANGEROUS	-0.716838
-4.518024	DANGEROUSLY	-0.502535
-4.518024	DANGERS	-0.358364
-4.756983	DANGLED	-0.013935
-4.259270	DANIEL	-0.510447
-4.756983	DANISH	-0.013935
-4.756983	DANNEMEYER	-0.013935
-4.619262	DANNY	-1.934410
-4.756983	DAPUZZO	-0.013935
-4.619262	DARBY	-0.013935
-4.756983	DARE	-0.013935
-4.619262	DARK	-3.162725
-4.756983	DARLING	-0.013935
-4.756983	DARMAN	-1.242272
-4.518024	DART	-1.855229
-4.756983	DARTMOUTH	-0.712010
-4.756983	DASH	-0.013935
-4.619262	DASHBOARD	-0.013935
-3.576629	DATA	-0.767132
-4.756983	DATABASE	-0.013935
-4.171332	DATE	-0.638697
-4.619262	DATED	-0.148553
-4.756983	DATES	-0.013935
-4.369654	DAUGHTER	-1.855229
-4.756983	DAUGHTER'S	-1.758319
-4.518024	DAUGHTERS	-0.307212
-4.756983	DAVE	-0.712010
-3.981028	DAVID	-0.303538
-4.619262	DAVIDOFF	-0.712010
-4.756983	DAVIES	-0.013935
-4.619262	DAVIS	-0.013935
-4.756983	DAVOS	-0.013935
-4.756983	DAWN	-0.013935
-4.756983	DAWNED	-0.712010
-3.383701	DAY	-0.967108
-4.518024	DAY'S	-0.429596
-4.756983	DAYNARD	-1.758319
-3.485652	DAYS	-0.817782
-4.756983	DAYS'	-0.013935
-4.756983	DAYTIME	-0.013935
-4.518024	DAYTON	-0.542632
-4.098237	DE	-0.582140
-4.756983	DEA	-0.013935
-4.259270	DEAD	-0.510447
-4.369654	DEADLINE	-0.475685
-4.756983	DEAF	-0.013935
-4.756983	DEAFNESS	-0.013935
-3.812806	DEAL	-0.683666
-4.518024	DEALER	-0.307212
-4.756983	DEALER'S	-0.712010
-3.691857	DEALERS	-0.862128
-4.619262	DEALERSHIP	-0.358364
-4.369654	DEALING	-1.002699
-4.518024	DEALINGS	-0.089614
-4.369654	DEALS	-0.148553
-4.369654	DEALT	-1.423715
-4.171332	DEAN	-0.385705
-4.756983	DEAR	-0.013935
-4.756983	DEARBORN	-1.758319
-4.035690	DEATH	-0.555002
-4.518024	DEATHS	-0.089614
-4.619262	DEAVER	-0.542632
-4.756983	DEBACLE	-1.758319
-4.756983	DEBARTOLOS	-0.013935
-4.756983	DEBASING	-0.013935
-4.619262	DEBATABLE	-0.712010
-3.812806	DEBATE	-0.455925
-4.756983	DEBATED	-0.013935
-4.518024	DEBATES	-0.089614
-4.756983	DEBATING	-0.712010
-4.369654	DEBENTURES	-0.933190
-4.619262	DEBILITATING	-0.148553
-4.756983	DEBRIS	-0.013935
-3.231882	DEBT	-0.783681
-4.259270	DEBTOR	-1.667368
-4.369654	DEBTORS	-1.508176
-4.756983	DEBTS	-1.758319
-4.756983	DEBUT	-1.758319
-4.756983	DEBUTS	-1.758319
-4.518024	DECADE	-0.697534
-4.518024	DECADES	-0.435589
-4.756983	DECAYING	-0.013935
-4.756983	DECE	-0.013935
-4.756983	DECEIT	-0.013935
-4.756983	DECEIVE	-1.934410
-3.666236	DECEMBER	-1.197596
-4.756983	DECENT	-1.758319
-4.756983	DECEPTION	-0.013935
-4.518024	DECIDE	-0.502535
-3.719085	DECIDED	-1.062899
-4.369654	DECIDES	-0.651776
-4.756983	DECIDING	-1.758319
-3.485652	DECISION	-0.724177
-3.888823	DECISIONS	-0.621854
-4.756983	DECISIVE	-1.758319
-4.756983	DECK	-0.013935
-4.756983	DECKER	-1.934410
-4.756983	DECKER'S	-1.934410
-4.756983	DECLARATION	-0.013935
-4.756983	DECLARE	-0.013935
-4.369654	DECLARED	-1.679138
-4.756983	DECLARING	-0.013935
-3.410472	DECLINE	-0.930836
-3.334653	DECLINED	-0.976826
-4.259270	DECLINERS	-0.697534
-3.932483	DECLINES	-1.590656
-4.098237	DECLINING	-0.322872
-4.756983	DECODER	-0.013935
-4.619262	DECONTROL	-0.013935
-4.619262	DECORATE	-2.571232
-4.518024	DECREASE	-0.089614
-4.619262	DECREASED	-0.013935
-4.756983	DECREE	-0.013935
-4.756983	DECRIED	-0.013935
-4.619262	DEDUCT	-0.358364
-4.756983	DEDUCTIBILITY	-0.013935
-4.369654	DEDUCTIBLE	-0.600624
-4.619262	DEDUCTING	-0.013935
-4.518024	DEDUCTION	-0.404122
-4.619262	DEDUCTIONS	-0.013935
-4.756983	DEEDED	-1.758319
-4.756983	DEEM	-0.013935
-4.756983	DEEMED	-1.758319
-4.756983	DEEMS	-0.013935
-4.369654	DEEP	-0.148553
-4.756983	DEEPEN	-0.712010
-4.369654	DEEPER	-0.475685
-4.756983	DEEPLY	-0.712010
-4.756983	DEER	-0.738926
-4.756983	DEERS	-0.475685
-4.756983	DEFAMATION	-0.013935
-4.518024	DEFAULT	-0.833529
-4.619262	DEFAULTED	-1.277587
-4.756983	DEFAULTS	-0.013935
-4.098237	DEFEAT	-0.076049
-4.098237	DEFEATED	-0.300255
-4.756983	DEFECTED	-1.758319
-4.619262	DEFEND	-0.066613
-4.756983	DEFENDANT	-0.013935
-4.619262	DEFENDANT'S	-0.148553
-4.619262	DEFENDANTS	-0.148553
-4.756983	DEFENDANTS'	-1.758319
-4.369654	DEFENDED	-0.502535
-4.619262	DEFENDERS	-0.475685
-4.518024	DEFENDING	-0.475685
-4.619262	DEFENDS	-0.475685
-3.642042	DEFENSE	-0.528093
-4.619262	DEFENSES	-0.013935
-4.369654	DEFENSIVE	-0.295678
-4.756983	DEFER	-1.758319
-4.756983	DEFERENCE	-0.712010
-4.756983	DEFERRALS	-0.013935
-4.756983	DEFERRED	-0.013935
-4.756983	DEFERRING	-0.013935
-4.756983	DEFICIENCY	-2.110501
-3.849154	DEFICIT	-0.592500
-4.259270	DEFICITS	-0.567899
-4.756983	DEFIES	-0.013935
-4.619262	DEFINE	-0.611680
-4.171332	DEFINED	-0.909709
-4.756983	DEFINES	-0.013935
-4.369654	DEFINITELY	-0.230600
-4.518024	DEFINITION	-0.013935
-4.756983	DEFINITIONS	-0.013935
-4.756983	DEFINITIVE	-0.013935
-4.756983	DEFLATED	-0.013935
-4.756983	DEFORESTATION	-0.712010
-4.619262	DEFRAUDED	-0.013935
-4.756983	DEFRAUDING	-0.013935
-4.756983	DEFUNCT	-0.013935
-4.756983	DEFUSE	-0.013935
-4.756983	DEFY	-0.013935
-4.518024	DEGREE	-0.013935
-4.619262	DEGREES	-0.475685
-4.756983	DELAWARE	-1.758319
-4.171332	DELAY	-0.148553
-4.171332	DELAYED	-0.453302
-4.619262	DELAYING	-0.600624
-4.518024	DELAYS	-0.013935
-4.098237	DELEGATES	-0.660411
-4.619262	DELEGATION	-0.013935
-4.756983	DELEGATIONS	-0.712010
-4.756983	DELHI	-0.013935
-4.619262	DELIBERATE	-1.758319
-4.756983	DELICATE	-0.013935
-4.619262	DELICIOUS	-0.901654
-4.756983	DELIGHTFUL	-0.712010
-4.756983	DELINEATED	-0.013935
-4.619262	DELIVER	-0.148553
-4.369654	DELIVERED	-1.620010
-4.619262	DELIVERIES	-0.013935
-4.756983	DELIVERING	-0.712010
-3.981028	DELIVERY	-0.722614
-4.171332	DELTA	-0.906555
-4.756983	DELTA'S	-1.758319
-4.756983	DELTONA'S	-0.013935
-4.756983	DELUGE	-0.712010
-4.756983	DELUSION	-0.013935
-3.519792	DEMAND	-0.544051
-4.518024	DEMANDED	-0.307212
-4.259270	DEMANDING	-0.812378
-4.098237	DEMANDS	-1.819017
-4.756983	DEMARCATION	-0.013935
-4.619262	DEMENTED	-0.712010
-4.756983	DEMERS	-0.013935
-4.756983	DEMME	-1.855229
-4.756983	DEMOCRACIES	-0.148553
-4.259270	DEMOCRACY	-0.309781
-4.035690	DEMOCRAT	-0.979701
-3.748135	DEMOCRATIC	-0.500013
-4.098237	DEMOCRATS	-0.452641
-4.619262	DEMOCRATS'	-0.337499
-4.756983	DEMONSTRATION	-0.013935
-4.619262	DEMONSTRATIONS	-1.700327
-4.619262	DEMONSTRATORS	-0.396504
-4.756983	DEMPSEY	-0.013935
-4.756983	DENG	-0.013935
-4.035690	DENIED	-0.382472
-4.619262	DENIES	-0.013935
-4.619262	DENISON	-0.712010
-4.756983	DENMARK	-2.059349
-4.619262	DENNIS	-1.356768
-4.756983	DENOMINATED	-0.013935
-4.756983	DENOMINATOR	-0.013935
-4.619262	DENTON	-0.013935
-4.518024	DENVER	-0.282019
-4.098237	DENY	-0.557830
-4.756983	DENYING	-1.758319
-4.756983	DEPARTED	-1.758319
-3.556845	DEPARTMENT	-0.787019
-4.518024	DEPARTMENT'S	-0.337499
-4.098237	DEPARTMENTS	-0.897162
-4.756983	DEPARTS	-0.013935
-4.171332	DEPARTURE	-0.698425
-4.756983	DEPARTURES	-1.758319
-4.756983	DEPAUW	-0.712010
-4.619262	DEPEND	-1.934410
-4.756983	DEPENDENCE	-1.934410
-4.171332	DEPENDENT	-1.339182
-4.619262	DEPENDING	-2.059349
-4.369654	DEPENDS	-1.934410
-4.756983	DEPICTIONS	-0.013935
-4.756983	DEPLETED	-0.712010
-4.756983	DEPLOYED	-0.013935
-4.756983	DEPORTATION	-0.013935
-4.756983	DEPOSED	-1.758319
-4.369654	DEPOSIT	-0.541131
-4.756983	DEPOSITARY	-1.934410
-4.756983	DEPOSITED	-1.934410
-4.756983	DEPOSITION	-1.758319
-4.756983	DEPOSITIONS	-0.013935
-4.259270	DEPOSITS	-1.534560
-4.756983	DEPRECIATING	-0.013935
-4.756983	DEPRECIATION	-0.013935
-4.171332	DEPRESSED	-0.604848
-4.756983	DEPRESSES	-0.712010
-4.369654	DEPRESSION	-0.013935
-4.259270	DEPUTY	-0.414753
-4.756983	DERAILED	-0.013935
-4.518024	DEREGULATION	-0.828816
-4.619262	DEREGULATORY	-1.855229
-4.756983	DERELICT	-0.013935
-4.756983	DERIVATIVE	-0.013935
-4.756983	DERIVE	-1.758319
-4.619262	DES	-0.475685
-4.619262	DESCRIBE	-0.148553
-3.888823	DESCRIBED	-1.093132
-4.619262	DESERT	-0.712010
-4.756983	DESERTED	-0.013935
-4.756983	DESERVE	-1.758319
-4.756983	DESERVES	-0.013935
-4.518024	DESIGN	-0.724080
-4.756983	DESIGNATES	-0.013935
-3.981028	DESIGNED	-1.581502
-4.756983	DESIGNING	-1.758319
-4.756983	DESIGNS	-0.013935
-4.619262	DESIRABLE	-1.855229
-4.518024	DESIRE	-0.013935
-4.756983	DESIRED	-0.013935
-4.756983	DESIRES	-0.013935
-4.518024	DESK	-0.235635
-4.756983	DESKS	-0.013935
-4.619262	DESKTOP	-0.013935
-4.756983	DESPAIR	-1.758319
-4.518024	DESPERATE	-1.793081
-4.756983	DESPERATELY	-1.758319
-4.756983	DESPERATION	-0.013935
-3.779268	DESPITE	-0.721167
-4.756983	DESSAUER	-0.013935
-4.756983	DESSERT	-2.110501
-4.756983	DESTINATION	-1.758319
-4.619262	DESTINY	-0.013935
-4.518024	DESTROY	-1.145086
-4.756983	DESTROYED	-0.013935
-4.619262	DESTRUCTION	-1.117333
-4.756983	DESTRUCTIVE	-0.013935
-4.756983	DETAILED	-0.013935
-4.756983	DETAILING	-0.013935
-3.932483	DETAILS	-0.738926
-4.756983	DETAINED	-0.013935
-4.619262	DETECT	-0.697534
-4.619262	DETECTED	-3.166983
-4.756983	DETECTING	-0.013935
-4.518024	DETECTION	-0.761869
-4.756983	DETECTIVE	-0.776715
-4.756983	DETER	-1.758319
-4.756983	DETERIORATE	-0.013935
-4.756983	DETERIORATED	-1.758319
-4.619262	DETERIORATING	-0.475685
-4.259270	DETERMINATION	-1.995226
-4.035690	DETERMINE	-0.507662
-4.369654	DETERMINED	-1.774444
-4.619262	DETERMINING	-0.013935
-4.619262	DETERRENCE	-0.475685
-4.518024	DETERRENT	-1.633380
-4.756983	DETERRENTS	-0.712010
-4.756983	DETRACT	-0.013935
-4.756983	DETRIMENTAL	-0.013935
-4.259270	DETROIT	-0.923605
-4.756983	DEVASTATING	-1.758319
-4.619262	DEVELOP	-0.450861
-3.932483	DEVELOPED	-0.527458
-4.369654	DEVELOPER	-0.687439
-4.259270	DEVELOPERS	-0.475685
-4.171332	DEVELOPING	-0.402150
-3.619126	DEVELOPMENT	-1.256374
-4.518024	DEVELOPMENTS	-0.761869
-4.518024	DEVELOPS	-0.502535
-4.756983	DEVIATE	-0.013935
-4.518024	DEVICE	-0.013935
-4.619262	DEVICES	-0.013935
-4.756983	DEVISED	-0.013935
-4.756983	DEVISING	-1.758319
-4.756983	DEVOTING	-1.633380
-4.619262	DEW	-0.148553
-4.756983	DEWEY	-0.712010
-4.756983	DEXTERITY	-0.013935
-4.756983	DIAGNOSIS	-1.758319
-4.756983	DIAGRAM	-0.013935
-4.756983	DIAL	-0.013935
-4.518024	DIAMOND	-0.445514
-4.619262	DIAMONDS	-2.110501
-4.756983	DIANE	-0.013935
-4.756983	DIAPERS	-1.758319
-4.619262	DIARRHEA	-0.600624
-4.756983	DIASONICS	-1.758319
-4.756983	DICKS	-1.758319
-4.756983	DICTATE	-0.013935
-4.756983	DICTO	-0.013935
-3.358485	DID	-0.663103
-3.260243	DIDN'T	-0.596826
-4.518024	DIE	-0.235635
-4.098237	DIED	-0.897162
-4.756983	DIEGO	-0.819972
-4.756983	DIES	-0.712010
-4.756983	DIESEL	-1.758319
-4.756983	DIET	-0.013935
-4.756983	DIFFER	-1.758319
-4.756983	DIFFERED	-0.013935
-4.171332	DIFFERENCE	-0.912917
-4.259270	DIFFERENCES	-0.685273
-3.719085	DIFFERENT	-1.374506
-4.369654	DIFFERENTLY	-0.757824
-4.619262	DIFFERING	-0.475685
-3.849154	DIFFICULT	-1.097661
-4.259270	DIFFICULTIES	-0.054342
-4.369654	DIFFICULTY	-1.934410
-4.756983	DIFFUSE	-0.013935
-4.619262	DIG	-0.435589
-4.756983	DIGESTING	-0.712010
-4.756983	DIGGER	-2.001357
-4.756983	DIGGERS	-2.001357
-4.369654	DIGITAL	-0.337499
-4.369654	DIGNIFIED	-1.758319
-4.619262	DIGNITY	-0.475685
-4.756983	DILEMMA	-0.013935
-4.619262	DILEO	-0.712010
-4.369654	DILLARD	-0.761869
-4.619262	DILLON	-2.059349
-4.756983	DILUTED	-1.758319
-4.756983	DILUTION	-0.712010
-4.756983	DIMENSIONAL	-0.013935
-4.756983	DIMER	-0.712010
-4.619262	DIMINISH	-0.148553
-4.756983	DIMISH	-0.013935
-4.756983	DIMLY	-2.156259
-4.756983	DINERS	-0.013935
-4.619262	DINGELL	-0.013935
-4.756983	DINGMAN	-0.013935
-4.619262	DINING	-2.423431
-4.171332	DINNER	-0.798801
-4.756983	DINNERS	-1.758319
-4.756983	DINOSAUR	-0.013935
-4.756983	DIOCESE	-0.013935
-4.756983	DIOXIDE	-3.455112
-4.756983	DIP	-0.712010
-4.619262	DIPLOMAT	-1.532860
-4.369654	DIPLOMATIC	-1.508176
-4.756983	DIPLOMATICALLY	-1.633380
-4.369654	DIPLOMATS	-0.502535
-4.756983	DIPLOMATS'	-0.013935
-4.756983	DIRE	-0.013935
-3.812806	DIRECT	-0.568629
-4.756983	DIRECTED	-0.013935
-4.098237	DIRECTION	-0.897162
-4.756983	DIRECTIONS	-0.013935
-3.748135	DIRECTLY	-0.608242
-3.502386	DIRECTOR	-0.844129
-4.619262	DIRECTORATE	-0.013935
-3.691857	DIRECTORS	-0.700360
-4.756983	DIRECTORY	-0.013935
-4.518024	DIRT	-0.502535
-4.171332	DIRTY	-1.198504
-4.619262	DISABILITY	-0.013935
-4.518024	DISABLED	-0.475685
-4.619262	DISADVANTAGE	-1.934410
-4.756983	DISADVANTAGES	-0.013935
-4.756983	DISAFFECTED	-0.013935
-4.518024	DISAGREE	-1.700327
-4.756983	DISAGREEMENT	-1.758319
-4.756983	DISAGREEMENTS	-0.712010
-4.619262	DISAGREES	-1.758319
-4.756983	DISALLOWANCE	-0.013935
-4.518024	DISAPPEAR	-0.307212
-4.369654	DISAPPEARED	-1.188916
-4.756983	DISAPPEARS	-0.013935
-4.518024	DISAPPOINTED	-0.089614
-4.259270	DISAPPOINTING	-0.898781
-4.756983	DISAPPOINTMENT	-0.013935
-4.756983	DISAPPOINTMENTS	-0.712010
-4.756983	DISAPPROVE	-1.758319
-4.518024	DISASTER	-0.307212
-4.518024	DISASTERS	-0.235635
-4.756983	DISASTROUS	-0.013935
-4.756983	DISBURSE	-0.013935
-4.756983	DISCHARGED	-1.758319
-4.619262	DISCIPLINE	-0.013935
-4.756983	DISCIPLINED	-1.758319
-4.756983	DISCLAIMS	-0.013935
-4.171332	DISCLOSE	-0.887012
-4.098237	DISCLOSED	-0.637995
-4.619262	DISCLOSURES	-0.148553
-4.756983	DISCOMFORT	-0.013935
-4.756983	DISCONNECTING	-1.633380
-4.756983	DISCONTENT	-1.855229
-4.518024	DISCONTINUED	-1.532860
-4.756983	DISCORD	-1.934410
-3.932483	DISCOUNT	-0.522121
-4.756983	DISCOUNTED	-1.758319
-4.756983	DISCOUNTERS	-0.013935
-4.756983	DISCOUNTING	-0.013935
-4.518024	DISCOUNTS	-0.611680
-4.619262	DISCOURAGE	-0.475685
-4.619262	DISCOURAGING	-0.013935
-4.756983	DISCOVER	-0.013935
-4.518024	DISCOVERED	-0.013935
-4.756983	DISCOVERIES	-0.013935
-4.619262	DISCOVERY	-0.148553
-4.756983	DISCRETION	-0.013935
-4.756983	DISCRIMINATED	-0.013935
-4.518024	DISCRIMINATION	-0.937960
-4.756983	DISCRIMINATORY	-0.013935
-4.369654	DISCUSS	-0.538716
-3.981028	DISCUSSED	-0.286667
-4.619262	DISCUSSING	-0.475685
-4.259270	DISCUSSION	-0.230600
-4.171332	DISCUSSIONS	-0.387627
-4.756983	DISDAINS	-0.013935
-4.171332	DISEASE	-0.611680
-4.369654	DISEASES	-0.445514
-4.756983	DISGORGE	-0.013935
-4.756983	DISGRUNTLED	-0.013935
-4.518024	DISGUISE	-0.475685
-4.756983	DISGUISED	-0.712010
-4.756983	DISGUISES	-1.758319
-4.756983	DISH	-0.712010
-4.619262	DISHES	-1.758319
-4.619262	DISK	-1.532860
-4.619262	DISLODGE	-1.758319
-4.619262	DISMANTLE	-0.712010
-4.619262	DISMANTLED	-0.475685
-4.369654	DISMANTLING	-1.883258
-4.619262	DISMAY	-0.475685
-4.756983	DISMISS	-0.013935
-4.035690	DISMISSED	-0.982276
-4.369654	DISNEY	-0.337499
-4.756983	DISNEYLAND	-1.633380
-4.756983	DISORIENTATION	-0.013935
-4.756983	DISPARITIES	-1.758319
-4.756983	DISPEL	-0.013935
-4.619262	DISPLAY	-0.013935
-4.756983	DISPLAYS	-0.013935
-4.619262	DISPOSABLE	-1.758319
-4.756983	DISPOSAL	-0.712010
-4.619262	DISPOSE	-1.855229
-4.756983	DISPOSITION	-1.633380
-4.369654	DISPUTE	-0.379436
-4.756983	DISPUTED	-0.600624
-4.756983	DISPUTES	-0.712010
-4.756983	DISQUALIFY	-0.013935
-4.756983	DISRESPECT	-1.758319
-4.756983	DISSAPPEARED	-0.712010
-4.756983	DISSEMINATING	-0.712010
-4.619262	DISSIDENT	-0.148553
-4.756983	DISSOLUTION	-0.013935
-4.619262	DISSOLVE	-0.600624
-4.756983	DISSOLVED	-0.013935
-4.756983	DISSOLVER	-0.712010
-4.518024	DISTANCE	-0.502535
-4.756983	DISTASTE	-0.013935
-4.756983	DISTILLERS	-0.600624
-4.369654	DISTINCT	-0.337499
-4.619262	DISTINCTION	-0.148553
-4.756983	DISTINCTIONS	-0.013935
-4.756983	DISTINGUISH	-0.013935
-4.756983	DISTINGUISHES	-0.712010
-4.518024	DISTORTED	-0.475685
-4.756983	DISTORTIONS	-0.712010
-4.756983	DISTRESS	-0.013935
-4.619262	DISTRIBUTED	-0.013935
-4.756983	DISTRIBUTING	-0.712010
-4.035690	DISTRIBUTION	-0.512566
-4.756983	DISTRIBUTOR	-1.758319
-4.518024	DISTRIBUTORS	-0.013935
-4.756983	DISTRIBUTORS'	-0.712010
-3.888823	DISTRICT	-0.616755
-4.756983	DISTRICT'S	-0.013935
-4.619262	DISTRUST	-1.277587
-4.756983	DISTRUSTED	-0.013935
-4.756983	DISTURBING	-0.013935
-4.756983	DISTURBS	-0.013935
-4.756983	DIVE	-1.633380
-4.756983	DIVED	-1.633380
-4.756983	DIVER	-0.712010
-4.756983	DIVERGENT	-0.013935
-4.756983	DIVERSIFICATION	-0.013935
-4.619262	DIVERSIFIED	-1.277587
-4.756983	DIVERSIFYING	-0.013935
-4.518024	DIVERSION	-0.013935
-4.756983	DIVERSIONARY	-0.013935
-4.756983	DIVERSITY	-0.712010
-4.756983	DIVERT	-0.013935
-4.756983	DIVERTED	-0.712010
-4.756983	DIVESTITURE	-0.013935
-4.756983	DIVESTITURES	-0.013935
-4.619262	DIVIDED	-0.148553
-3.812806	DIVIDEND	-0.812608
-4.259270	DIVIDENDS	-0.363348
-4.756983	DIVING	-1.934410
-3.888823	DIVISION	-0.336292
-4.035690	DIVISIONS	-0.490290
-4.756983	DIVORCE	-0.013935
-4.619262	DIVORCES	-0.013935
-4.619262	DIVULGED	-0.475685
-4.756983	DIXON	-0.013935
-4.756983	DIZZINESS	-0.013935
-4.756983	DIZZY	-0.712010
-3.231882	DO	-1.015846
-3.849154	DOCTOR	-0.536126
-4.518024	DOCTORS	-0.460994
-4.518024	DOCTRINE	-0.307212
-4.619262	DOCUMENT	-0.089614
-4.035690	DOCUMENTS	-0.694210
-4.756983	DOERR	-0.712010
-3.485652	DOES	-0.579182
-3.260243	DOESN'T	-0.633432
-4.756983	DOFASCO	-0.712010
-4.098237	DOG	-1.051730
-4.756983	DOG'S	-0.712010
-4.756983	DOGFIGHTS	-1.633380
-4.035690	DOGS	-0.918810
-3.619126	DOING	-0.543824
-4.756983	DOINGS	-1.633380
-4.619262	DOLDRUMS	-1.423715
-4.171332	DOLE	-0.358364
-4.756983	DOLE'S	-0.013935
-4.619262	DOLL	-2.235440
-3.346405	DOLLAR	-0.649326
-4.756983	DOLLAR'S	-1.217125
-3.312061	DOLLARS	-1.479944
-4.756983	DOLLOP	-0.013935
-4.619262	DOLPHINS	-0.013935
-4.756983	DOME	-0.013935
-3.597358	DOMESTIC	-0.503268
-4.756983	DOMINANCE	-1.758319
-4.756983	DOMINANT	-0.712010
-4.756983	DOMINATE	-1.758319
-4.259270	DOMINATED	-2.177448
-4.756983	DOMINEE	-0.712010
-4.756983	DOMINICAN	-0.013935
-4.518024	DOMINION	-0.013935
-4.756983	DOMINO'S	-0.013935
-4.756983	DON	-0.013935
-3.231882	DON'T	-1.094950
-4.619262	DONALDSON	-2.059349
-4.259270	DONATED	-0.510447
-4.756983	DONATING	-0.013935
-4.756983	DONATION	-0.013935
-3.779268	DONE	-0.682228
-4.756983	DONKEY	-0.013935
-4.756983	DONOR	-0.013935
-4.756983	DONORS	-0.013935
-4.756983	DONORS'	-0.013935
-4.756983	DOO	-0.712010
-3.932483	DOOR	-1.029671
-4.619262	DOORS	-0.636930
